tree
version=v4
num_class=1
num_tree_per_iteration=1
label_index=0
max_feature_idx=2380
objective=binary sigmoid:1
feature_names=Column_0 Column_1 Column_2 Column_3 Column_4 Column_5 Column_6 Column_7 Column_8 Column_9 Column_10 Column_11 Column_12 Column_13 Column_14 Column_15 Column_16 Column_17 Column_18 Column_19 Column_20 Column_21 Column_22 Column_23 Column_24 Column_25 Column_26 Column_27 Column_28 Column_29 Column_30 Column_31 Column_32 Column_33 Column_34 Column_35 Column_36 Column_37 Column_38 Column_39 Column_40 Column_41 Column_42 Column_43 Column_44 Column_45 Column_46 Column_47 Column_48 Column_49 Column_50 Column_51 Column_52 Column_53 Column_54 Column_55 Column_56 Column_57 Column_58 Column_59 Column_60 Column_61 Column_62 Column_63 Column_64 Column_65 Column_66 Column_67 Column_68 Column_69 Column_70 Column_71 Column_72 Column_73 Column_74 Column_75 Column_76 Column_77 Column_78 Column_79 Column_80 Column_81 Column_82 Column_83 Column_84 Column_85 Column_86 Column_87 Column_88 Column_89 Column_90 Column_91 Column_92 Column_93 Column_94 Column_95 Column_96 Column_97 Column_98 Column_99 Column_100 Column_101 Column_102 Column_103 Column_104 Column_105 Column_106 Column_107 Column_108 Column_109 Column_110 Column_111 Column_112 Column_113 Column_114 Column_115 Column_116 Column_117 Column_118 Column_119 Column_120 Column_121 Column_122 Column_123 Column_124 Column_125 Column_126 Column_127 Column_128 Column_129 Column_130 Column_131 Column_132 Column_133 Column_134 Column_135 Column_136 Column_137 Column_138 Column_139 Column_140 Column_141 Column_142 Column_143 Column_144 Column_145 Column_146 Column_147 Column_148 Column_149 Column_150 Column_151 Column_152 Column_153 Column_154 Column_155 Column_156 Column_157 Column_158 Column_159 Column_160 Column_161 Column_162 Column_163 Column_164 Column_165 Column_166 Column_167 Column_168 Column_169 Column_170 Column_171 Column_172 Column_173 Column_174 Column_175 Column_176 Column_177 Column_178 Column_179 Column_180 Column_181 Column_182 Column_183 Column_184 Column_185 Column_186 Column_187 Column_188 Column_189 Column_190 Column_191 Column_192 Column_193 Column_194 Column_195 Column_196 Column_197 Column_198 Column_199 Column_200 Column_201 Column_202 Column_203 Column_204 Column_205 Column_206 Column_207 Column_208 Column_209 Column_210 Column_211 Column_212 Column_213 Column_214 Column_215 Column_216 Column_217 Column_218 Column_219 Column_220 Column_221 Column_222 Column_223 Column_224 Column_225 Column_226 Column_227 Column_228 Column_229 Column_230 Column_231 Column_232 Column_233 Column_234 Column_235 Column_236 Column_237 Column_238 Column_239 Column_240 Column_241 Column_242 Column_243 Column_244 Column_245 Column_246 Column_247 Column_248 Column_249 Column_250 Column_251 Column_252 Column_253 Column_254 Column_255 Column_256 Column_257 Column_258 Column_259 Column_260 Column_261 Column_262 Column_263 Column_264 Column_265 Column_266 Column_267 Column_268 Column_269 Column_270 Column_271 Column_272 Column_273 Column_274 Column_275 Column_276 Column_277 Column_278 Column_279 Column_280 Column_281 Column_282 Column_283 Column_284 Column_285 Column_286 Column_287 Column_288 Column_289 Column_290 Column_291 Column_292 Column_293 Column_294 Column_295 Column_296 Column_297 Column_298 Column_299 Column_300 Column_301 Column_302 Column_303 Column_304 Column_305 Column_306 Column_307 Column_308 Column_309 Column_310 Column_311 Column_312 Column_313 Column_314 Column_315 Column_316 Column_317 Column_318 Column_319 Column_320 Column_321 Column_322 Column_323 Column_324 Column_325 Column_326 Column_327 Column_328 Column_329 Column_330 Column_331 Column_332 Column_333 Column_334 Column_335 Column_336 Column_337 Column_338 Column_339 Column_340 Column_341 Column_342 Column_343 Column_344 Column_345 Column_346 Column_347 Column_348 Column_349 Column_350 Column_351 Column_352 Column_353 Column_354 Column_355 Column_356 Column_357 Column_358 Column_359 Column_360 Column_361 Column_362 Column_363 Column_364 Column_365 Column_366 Column_367 Column_368 Column_369 Column_370 Column_371 Column_372 Column_373 Column_374 Column_375 Column_376 Column_377 Column_378 Column_379 Column_380 Column_381 Column_382 Column_383 Column_384 Column_385 Column_386 Column_387 Column_388 Column_389 Column_390 Column_391 Column_392 Column_393 Column_394 Column_395 Column_396 Column_397 Column_398 Column_399 Column_400 Column_401 Column_402 Column_403 Column_404 Column_405 Column_406 Column_407 Column_408 Column_409 Column_410 Column_411 Column_412 Column_413 Column_414 Column_415 Column_416 Column_417 Column_418 Column_419 Column_420 Column_421 Column_422 Column_423 Column_424 Column_425 Column_426 Column_427 Column_428 Column_429 Column_430 Column_431 Column_432 Column_433 Column_434 Column_435 Column_436 Column_437 Column_438 Column_439 Column_440 Column_441 Column_442 Column_443 Column_444 Column_445 Column_446 Column_447 Column_448 Column_449 Column_450 Column_451 Column_452 Column_453 Column_454 Column_455 Column_456 Column_457 Column_458 Column_459 Column_460 Column_461 Column_462 Column_463 Column_464 Column_465 Column_466 Column_467 Column_468 Column_469 Column_470 Column_471 Column_472 Column_473 Column_474 Column_475 Column_476 Column_477 Column_478 Column_479 Column_480 Column_481 Column_482 Column_483 Column_484 Column_485 Column_486 Column_487 Column_488 Column_489 Column_490 Column_491 Column_492 Column_493 Column_494 Column_495 Column_496 Column_497 Column_498 Column_499 Column_500 Column_501 Column_502 Column_503 Column_504 Column_505 Column_506 Column_507 Column_508 Column_509 Column_510 Column_511 Column_512 Column_513 Column_514 Column_515 Column_516 Column_517 Column_518 Column_519 Column_520 Column_521 Column_522 Column_523 Column_524 Column_525 Column_526 Column_527 Column_528 Column_529 Column_530 Column_531 Column_532 Column_533 Column_534 Column_535 Column_536 Column_537 Column_538 Column_539 Column_540 Column_541 Column_542 Column_543 Column_544 Column_545 Column_546 Column_547 Column_548 Column_549 Column_550 Column_551 Column_552 Column_553 Column_554 Column_555 Column_556 Column_557 Column_558 Column_559 Column_560 Column_561 Column_562 Column_563 Column_564 Column_565 Column_566 Column_567 Column_568 Column_569 Column_570 Column_571 Column_572 Column_573 Column_574 Column_575 Column_576 Column_577 Column_578 Column_579 Column_580 Column_581 Column_582 Column_583 Column_584 Column_585 Column_586 Column_587 Column_588 Column_589 Column_590 Column_591 Column_592 Column_593 Column_594 Column_595 Column_596 Column_597 Column_598 Column_599 Column_600 Column_601 Column_602 Column_603 Column_604 Column_605 Column_606 Column_607 Column_608 Column_609 Column_610 Column_611 Column_612 Column_613 Column_614 Column_615 Column_616 Column_617 Column_618 Column_619 Column_620 Column_621 Column_622 Column_623 Column_624 Column_625 Column_626 Column_627 Column_628 Column_629 Column_630 Column_631 Column_632 Column_633 Column_634 Column_635 Column_636 Column_637 Column_638 Column_639 Column_640 Column_641 Column_642 Column_643 Column_644 Column_645 Column_646 Column_647 Column_648 Column_649 Column_650 Column_651 Column_652 Column_653 Column_654 Column_655 Column_656 Column_657 Column_658 Column_659 Column_660 Column_661 Column_662 Column_663 Column_664 Column_665 Column_666 Column_667 Column_668 Column_669 Column_670 Column_671 Column_672 Column_673 Column_674 Column_675 Column_676 Column_677 Column_678 Column_679 Column_680 Column_681 Column_682 Column_683 Column_684 Column_685 Column_686 Column_687 Column_688 Column_689 Column_690 Column_691 Column_692 Column_693 Column_694 Column_695 Column_696 Column_697 Column_698 Column_699 Column_700 Column_701 Column_702 Column_703 Column_704 Column_705 Column_706 Column_707 Column_708 Column_709 Column_710 Column_711 Column_712 Column_713 Column_714 Column_715 Column_716 Column_717 Column_718 Column_719 Column_720 Column_721 Column_722 Column_723 Column_724 Column_725 Column_726 Column_727 Column_728 Column_729 Column_730 Column_731 Column_732 Column_733 Column_734 Column_735 Column_736 Column_737 Column_738 Column_739 Column_740 Column_741 Column_742 Column_743 Column_744 Column_745 Column_746 Column_747 Column_748 Column_749 Column_750 Column_751 Column_752 Column_753 Column_754 Column_755 Column_756 Column_757 Column_758 Column_759 Column_760 Column_761 Column_762 Column_763 Column_764 Column_765 Column_766 Column_767 Column_768 Column_769 Column_770 Column_771 Column_772 Column_773 Column_774 Column_775 Column_776 Column_777 Column_778 Column_779 Column_780 Column_781 Column_782 Column_783 Column_784 Column_785 Column_786 Column_787 Column_788 Column_789 Column_790 Column_791 Column_792 Column_793 Column_794 Column_795 Column_796 Column_797 Column_798 Column_799 Column_800 Column_801 Column_802 Column_803 Column_804 Column_805 Column_806 Column_807 Column_808 Column_809 Column_810 Column_811 Column_812 Column_813 Column_814 Column_815 Column_816 Column_817 Column_818 Column_819 Column_820 Column_821 Column_822 Column_823 Column_824 Column_825 Column_826 Column_827 Column_828 Column_829 Column_830 Column_831 Column_832 Column_833 Column_834 Column_835 Column_836 Column_837 Column_838 Column_839 Column_840 Column_841 Column_842 Column_843 Column_844 Column_845 Column_846 Column_847 Column_848 Column_849 Column_850 Column_851 Column_852 Column_853 Column_854 Column_855 Column_856 Column_857 Column_858 Column_859 Column_860 Column_861 Column_862 Column_863 Column_864 Column_865 Column_866 Column_867 Column_868 Column_869 Column_870 Column_871 Column_872 Column_873 Column_874 Column_875 Column_876 Column_877 Column_878 Column_879 Column_880 Column_881 Column_882 Column_883 Column_884 Column_885 Column_886 Column_887 Column_888 Column_889 Column_890 Column_891 Column_892 Column_893 Column_894 Column_895 Column_896 Column_897 Column_898 Column_899 Column_900 Column_901 Column_902 Column_903 Column_904 Column_905 Column_906 Column_907 Column_908 Column_909 Column_910 Column_911 Column_912 Column_913 Column_914 Column_915 Column_916 Column_917 Column_918 Column_919 Column_920 Column_921 Column_922 Column_923 Column_924 Column_925 Column_926 Column_927 Column_928 Column_929 Column_930 Column_931 Column_932 Column_933 Column_934 Column_935 Column_936 Column_937 Column_938 Column_939 Column_940 Column_941 Column_942 Column_943 Column_944 Column_945 Column_946 Column_947 Column_948 Column_949 Column_950 Column_951 Column_952 Column_953 Column_954 Column_955 Column_956 Column_957 Column_958 Column_959 Column_960 Column_961 Column_962 Column_963 Column_964 Column_965 Column_966 Column_967 Column_968 Column_969 Column_970 Column_971 Column_972 Column_973 Column_974 Column_975 Column_976 Column_977 Column_978 Column_979 Column_980 Column_981 Column_982 Column_983 Column_984 Column_985 Column_986 Column_987 Column_988 Column_989 Column_990 Column_991 Column_992 Column_993 Column_994 Column_995 Column_996 Column_997 Column_998 Column_999 Column_1000 Column_1001 Column_1002 Column_1003 Column_1004 Column_1005 Column_1006 Column_1007 Column_1008 Column_1009 Column_1010 Column_1011 Column_1012 Column_1013 Column_1014 Column_1015 Column_1016 Column_1017 Column_1018 Column_1019 Column_1020 Column_1021 Column_1022 Column_1023 Column_1024 Column_1025 Column_1026 Column_1027 Column_1028 Column_1029 Column_1030 Column_1031 Column_1032 Column_1033 Column_1034 Column_1035 Column_1036 Column_1037 Column_1038 Column_1039 Column_1040 Column_1041 Column_1042 Column_1043 Column_1044 Column_1045 Column_1046 Column_1047 Column_1048 Column_1049 Column_1050 Column_1051 Column_1052 Column_1053 Column_1054 Column_1055 Column_1056 Column_1057 Column_1058 Column_1059 Column_1060 Column_1061 Column_1062 Column_1063 Column_1064 Column_1065 Column_1066 Column_1067 Column_1068 Column_1069 Column_1070 Column_1071 Column_1072 Column_1073 Column_1074 Column_1075 Column_1076 Column_1077 Column_1078 Column_1079 Column_1080 Column_1081 Column_1082 Column_1083 Column_1084 Column_1085 Column_1086 Column_1087 Column_1088 Column_1089 Column_1090 Column_1091 Column_1092 Column_1093 Column_1094 Column_1095 Column_1096 Column_1097 Column_1098 Column_1099 Column_1100 Column_1101 Column_1102 Column_1103 Column_1104 Column_1105 Column_1106 Column_1107 Column_1108 Column_1109 Column_1110 Column_1111 Column_1112 Column_1113 Column_1114 Column_1115 Column_1116 Column_1117 Column_1118 Column_1119 Column_1120 Column_1121 Column_1122 Column_1123 Column_1124 Column_1125 Column_1126 Column_1127 Column_1128 Column_1129 Column_1130 Column_1131 Column_1132 Column_1133 Column_1134 Column_1135 Column_1136 Column_1137 Column_1138 Column_1139 Column_1140 Column_1141 Column_1142 Column_1143 Column_1144 Column_1145 Column_1146 Column_1147 Column_1148 Column_1149 Column_1150 Column_1151 Column_1152 Column_1153 Column_1154 Column_1155 Column_1156 Column_1157 Column_1158 Column_1159 Column_1160 Column_1161 Column_1162 Column_1163 Column_1164 Column_1165 Column_1166 Column_1167 Column_1168 Column_1169 Column_1170 Column_1171 Column_1172 Column_1173 Column_1174 Column_1175 Column_1176 Column_1177 Column_1178 Column_1179 Column_1180 Column_1181 Column_1182 Column_1183 Column_1184 Column_1185 Column_1186 Column_1187 Column_1188 Column_1189 Column_1190 Column_1191 Column_1192 Column_1193 Column_1194 Column_1195 Column_1196 Column_1197 Column_1198 Column_1199 Column_1200 Column_1201 Column_1202 Column_1203 Column_1204 Column_1205 Column_1206 Column_1207 Column_1208 Column_1209 Column_1210 Column_1211 Column_1212 Column_1213 Column_1214 Column_1215 Column_1216 Column_1217 Column_1218 Column_1219 Column_1220 Column_1221 Column_1222 Column_1223 Column_1224 Column_1225 Column_1226 Column_1227 Column_1228 Column_1229 Column_1230 Column_1231 Column_1232 Column_1233 Column_1234 Column_1235 Column_1236 Column_1237 Column_1238 Column_1239 Column_1240 Column_1241 Column_1242 Column_1243 Column_1244 Column_1245 Column_1246 Column_1247 Column_1248 Column_1249 Column_1250 Column_1251 Column_1252 Column_1253 Column_1254 Column_1255 Column_1256 Column_1257 Column_1258 Column_1259 Column_1260 Column_1261 Column_1262 Column_1263 Column_1264 Column_1265 Column_1266 Column_1267 Column_1268 Column_1269 Column_1270 Column_1271 Column_1272 Column_1273 Column_1274 Column_1275 Column_1276 Column_1277 Column_1278 Column_1279 Column_1280 Column_1281 Column_1282 Column_1283 Column_1284 Column_1285 Column_1286 Column_1287 Column_1288 Column_1289 Column_1290 Column_1291 Column_1292 Column_1293 Column_1294 Column_1295 Column_1296 Column_1297 Column_1298 Column_1299 Column_1300 Column_1301 Column_1302 Column_1303 Column_1304 Column_1305 Column_1306 Column_1307 Column_1308 Column_1309 Column_1310 Column_1311 Column_1312 Column_1313 Column_1314 Column_1315 Column_1316 Column_1317 Column_1318 Column_1319 Column_1320 Column_1321 Column_1322 Column_1323 Column_1324 Column_1325 Column_1326 Column_1327 Column_1328 Column_1329 Column_1330 Column_1331 Column_1332 Column_1333 Column_1334 Column_1335 Column_1336 Column_1337 Column_1338 Column_1339 Column_1340 Column_1341 Column_1342 Column_1343 Column_1344 Column_1345 Column_1346 Column_1347 Column_1348 Column_1349 Column_1350 Column_1351 Column_1352 Column_1353 Column_1354 Column_1355 Column_1356 Column_1357 Column_1358 Column_1359 Column_1360 Column_1361 Column_1362 Column_1363 Column_1364 Column_1365 Column_1366 Column_1367 Column_1368 Column_1369 Column_1370 Column_1371 Column_1372 Column_1373 Column_1374 Column_1375 Column_1376 Column_1377 Column_1378 Column_1379 Column_1380 Column_1381 Column_1382 Column_1383 Column_1384 Column_1385 Column_1386 Column_1387 Column_1388 Column_1389 Column_1390 Column_1391 Column_1392 Column_1393 Column_1394 Column_1395 Column_1396 Column_1397 Column_1398 Column_1399 Column_1400 Column_1401 Column_1402 Column_1403 Column_1404 Column_1405 Column_1406 Column_1407 Column_1408 Column_1409 Column_1410 Column_1411 Column_1412 Column_1413 Column_1414 Column_1415 Column_1416 Column_1417 Column_1418 Column_1419 Column_1420 Column_1421 Column_1422 Column_1423 Column_1424 Column_1425 Column_1426 Column_1427 Column_1428 Column_1429 Column_1430 Column_1431 Column_1432 Column_1433 Column_1434 Column_1435 Column_1436 Column_1437 Column_1438 Column_1439 Column_1440 Column_1441 Column_1442 Column_1443 Column_1444 Column_1445 Column_1446 Column_1447 Column_1448 Column_1449 Column_1450 Column_1451 Column_1452 Column_1453 Column_1454 Column_1455 Column_1456 Column_1457 Column_1458 Column_1459 Column_1460 Column_1461 Column_1462 Column_1463 Column_1464 Column_1465 Column_1466 Column_1467 Column_1468 Column_1469 Column_1470 Column_1471 Column_1472 Column_1473 Column_1474 Column_1475 Column_1476 Column_1477 Column_1478 Column_1479 Column_1480 Column_1481 Column_1482 Column_1483 Column_1484 Column_1485 Column_1486 Column_1487 Column_1488 Column_1489 Column_1490 Column_1491 Column_1492 Column_1493 Column_1494 Column_1495 Column_1496 Column_1497 Column_1498 Column_1499 Column_1500 Column_1501 Column_1502 Column_1503 Column_1504 Column_1505 Column_1506 Column_1507 Column_1508 Column_1509 Column_1510 Column_1511 Column_1512 Column_1513 Column_1514 Column_1515 Column_1516 Column_1517 Column_1518 Column_1519 Column_1520 Column_1521 Column_1522 Column_1523 Column_1524 Column_1525 Column_1526 Column_1527 Column_1528 Column_1529 Column_1530 Column_1531 Column_1532 Column_1533 Column_1534 Column_1535 Column_1536 Column_1537 Column_1538 Column_1539 Column_1540 Column_1541 Column_1542 Column_1543 Column_1544 Column_1545 Column_1546 Column_1547 Column_1548 Column_1549 Column_1550 Column_1551 Column_1552 Column_1553 Column_1554 Column_1555 Column_1556 Column_1557 Column_1558 Column_1559 Column_1560 Column_1561 Column_1562 Column_1563 Column_1564 Column_1565 Column_1566 Column_1567 Column_1568 Column_1569 Column_1570 Column_1571 Column_1572 Column_1573 Column_1574 Column_1575 Column_1576 Column_1577 Column_1578 Column_1579 Column_1580 Column_1581 Column_1582 Column_1583 Column_1584 Column_1585 Column_1586 Column_1587 Column_1588 Column_1589 Column_1590 Column_1591 Column_1592 Column_1593 Column_1594 Column_1595 Column_1596 Column_1597 Column_1598 Column_1599 Column_1600 Column_1601 Column_1602 Column_1603 Column_1604 Column_1605 Column_1606 Column_1607 Column_1608 Column_1609 Column_1610 Column_1611 Column_1612 Column_1613 Column_1614 Column_1615 Column_1616 Column_1617 Column_1618 Column_1619 Column_1620 Column_1621 Column_1622 Column_1623 Column_1624 Column_1625 Column_1626 Column_1627 Column_1628 Column_1629 Column_1630 Column_1631 Column_1632 Column_1633 Column_1634 Column_1635 Column_1636 Column_1637 Column_1638 Column_1639 Column_1640 Column_1641 Column_1642 Column_1643 Column_1644 Column_1645 Column_1646 Column_1647 Column_1648 Column_1649 Column_1650 Column_1651 Column_1652 Column_1653 Column_1654 Column_1655 Column_1656 Column_1657 Column_1658 Column_1659 Column_1660 Column_1661 Column_1662 Column_1663 Column_1664 Column_1665 Column_1666 Column_1667 Column_1668 Column_1669 Column_1670 Column_1671 Column_1672 Column_1673 Column_1674 Column_1675 Column_1676 Column_1677 Column_1678 Column_1679 Column_1680 Column_1681 Column_1682 Column_1683 Column_1684 Column_1685 Column_1686 Column_1687 Column_1688 Column_1689 Column_1690 Column_1691 Column_1692 Column_1693 Column_1694 Column_1695 Column_1696 Column_1697 Column_1698 Column_1699 Column_1700 Column_1701 Column_1702 Column_1703 Column_1704 Column_1705 Column_1706 Column_1707 Column_1708 Column_1709 Column_1710 Column_1711 Column_1712 Column_1713 Column_1714 Column_1715 Column_1716 Column_1717 Column_1718 Column_1719 Column_1720 Column_1721 Column_1722 Column_1723 Column_1724 Column_1725 Column_1726 Column_1727 Column_1728 Column_1729 Column_1730 Column_1731 Column_1732 Column_1733 Column_1734 Column_1735 Column_1736 Column_1737 Column_1738 Column_1739 Column_1740 Column_1741 Column_1742 Column_1743 Column_1744 Column_1745 Column_1746 Column_1747 Column_1748 Column_1749 Column_1750 Column_1751 Column_1752 Column_1753 Column_1754 Column_1755 Column_1756 Column_1757 Column_1758 Column_1759 Column_1760 Column_1761 Column_1762 Column_1763 Column_1764 Column_1765 Column_1766 Column_1767 Column_1768 Column_1769 Column_1770 Column_1771 Column_1772 Column_1773 Column_1774 Column_1775 Column_1776 Column_1777 Column_1778 Column_1779 Column_1780 Column_1781 Column_1782 Column_1783 Column_1784 Column_1785 Column_1786 Column_1787 Column_1788 Column_1789 Column_1790 Column_1791 Column_1792 Column_1793 Column_1794 Column_1795 Column_1796 Column_1797 Column_1798 Column_1799 Column_1800 Column_1801 Column_1802 Column_1803 Column_1804 Column_1805 Column_1806 Column_1807 Column_1808 Column_1809 Column_1810 Column_1811 Column_1812 Column_1813 Column_1814 Column_1815 Column_1816 Column_1817 Column_1818 Column_1819 Column_1820 Column_1821 Column_1822 Column_1823 Column_1824 Column_1825 Column_1826 Column_1827 Column_1828 Column_1829 Column_1830 Column_1831 Column_1832 Column_1833 Column_1834 Column_1835 Column_1836 Column_1837 Column_1838 Column_1839 Column_1840 Column_1841 Column_1842 Column_1843 Column_1844 Column_1845 Column_1846 Column_1847 Column_1848 Column_1849 Column_1850 Column_1851 Column_1852 Column_1853 Column_1854 Column_1855 Column_1856 Column_1857 Column_1858 Column_1859 Column_1860 Column_1861 Column_1862 Column_1863 Column_1864 Column_1865 Column_1866 Column_1867 Column_1868 Column_1869 Column_1870 Column_1871 Column_1872 Column_1873 Column_1874 Column_1875 Column_1876 Column_1877 Column_1878 Column_1879 Column_1880 Column_1881 Column_1882 Column_1883 Column_1884 Column_1885 Column_1886 Column_1887 Column_1888 Column_1889 Column_1890 Column_1891 Column_1892 Column_1893 Column_1894 Column_1895 Column_1896 Column_1897 Column_1898 Column_1899 Column_1900 Column_1901 Column_1902 Column_1903 Column_1904 Column_1905 Column_1906 Column_1907 Column_1908 Column_1909 Column_1910 Column_1911 Column_1912 Column_1913 Column_1914 Column_1915 Column_1916 Column_1917 Column_1918 Column_1919 Column_1920 Column_1921 Column_1922 Column_1923 Column_1924 Column_1925 Column_1926 Column_1927 Column_1928 Column_1929 Column_1930 Column_1931 Column_1932 Column_1933 Column_1934 Column_1935 Column_1936 Column_1937 Column_1938 Column_1939 Column_1940 Column_1941 Column_1942 Column_1943 Column_1944 Column_1945 Column_1946 Column_1947 Column_1948 Column_1949 Column_1950 Column_1951 Column_1952 Column_1953 Column_1954 Column_1955 Column_1956 Column_1957 Column_1958 Column_1959 Column_1960 Column_1961 Column_1962 Column_1963 Column_1964 Column_1965 Column_1966 Column_1967 Column_1968 Column_1969 Column_1970 Column_1971 Column_1972 Column_1973 Column_1974 Column_1975 Column_1976 Column_1977 Column_1978 Column_1979 Column_1980 Column_1981 Column_1982 Column_1983 Column_1984 Column_1985 Column_1986 Column_1987 Column_1988 Column_1989 Column_1990 Column_1991 Column_1992 Column_1993 Column_1994 Column_1995 Column_1996 Column_1997 Column_1998 Column_1999 Column_2000 Column_2001 Column_2002 Column_2003 Column_2004 Column_2005 Column_2006 Column_2007 Column_2008 Column_2009 Column_2010 Column_2011 Column_2012 Column_2013 Column_2014 Column_2015 Column_2016 Column_2017 Column_2018 Column_2019 Column_2020 Column_2021 Column_2022 Column_2023 Column_2024 Column_2025 Column_2026 Column_2027 Column_2028 Column_2029 Column_2030 Column_2031 Column_2032 Column_2033 Column_2034 Column_2035 Column_2036 Column_2037 Column_2038 Column_2039 Column_2040 Column_2041 Column_2042 Column_2043 Column_2044 Column_2045 Column_2046 Column_2047 Column_2048 Column_2049 Column_2050 Column_2051 Column_2052 Column_2053 Column_2054 Column_2055 Column_2056 Column_2057 Column_2058 Column_2059 Column_2060 Column_2061 Column_2062 Column_2063 Column_2064 Column_2065 Column_2066 Column_2067 Column_2068 Column_2069 Column_2070 Column_2071 Column_2072 Column_2073 Column_2074 Column_2075 Column_2076 Column_2077 Column_2078 Column_2079 Column_2080 Column_2081 Column_2082 Column_2083 Column_2084 Column_2085 Column_2086 Column_2087 Column_2088 Column_2089 Column_2090 Column_2091 Column_2092 Column_2093 Column_2094 Column_2095 Column_2096 Column_2097 Column_2098 Column_2099 Column_2100 Column_2101 Column_2102 Column_2103 Column_2104 Column_2105 Column_2106 Column_2107 Column_2108 Column_2109 Column_2110 Column_2111 Column_2112 Column_2113 Column_2114 Column_2115 Column_2116 Column_2117 Column_2118 Column_2119 Column_2120 Column_2121 Column_2122 Column_2123 Column_2124 Column_2125 Column_2126 Column_2127 Column_2128 Column_2129 Column_2130 Column_2131 Column_2132 Column_2133 Column_2134 Column_2135 Column_2136 Column_2137 Column_2138 Column_2139 Column_2140 Column_2141 Column_2142 Column_2143 Column_2144 Column_2145 Column_2146 Column_2147 Column_2148 Column_2149 Column_2150 Column_2151 Column_2152 Column_2153 Column_2154 Column_2155 Column_2156 Column_2157 Column_2158 Column_2159 Column_2160 Column_2161 Column_2162 Column_2163 Column_2164 Column_2165 Column_2166 Column_2167 Column_2168 Column_2169 Column_2170 Column_2171 Column_2172 Column_2173 Column_2174 Column_2175 Column_2176 Column_2177 Column_2178 Column_2179 Column_2180 Column_2181 Column_2182 Column_2183 Column_2184 Column_2185 Column_2186 Column_2187 Column_2188 Column_2189 Column_2190 Column_2191 Column_2192 Column_2193 Column_2194 Column_2195 Column_2196 Column_2197 Column_2198 Column_2199 Column_2200 Column_2201 Column_2202 Column_2203 Column_2204 Column_2205 Column_2206 Column_2207 Column_2208 Column_2209 Column_2210 Column_2211 Column_2212 Column_2213 Column_2214 Column_2215 Column_2216 Column_2217 Column_2218 Column_2219 Column_2220 Column_2221 Column_2222 Column_2223 Column_2224 Column_2225 Column_2226 Column_2227 Column_2228 Column_2229 Column_2230 Column_2231 Column_2232 Column_2233 Column_2234 Column_2235 Column_2236 Column_2237 Column_2238 Column_2239 Column_2240 Column_2241 Column_2242 Column_2243 Column_2244 Column_2245 Column_2246 Column_2247 Column_2248 Column_2249 Column_2250 Column_2251 Column_2252 Column_2253 Column_2254 Column_2255 Column_2256 Column_2257 Column_2258 Column_2259 Column_2260 Column_2261 Column_2262 Column_2263 Column_2264 Column_2265 Column_2266 Column_2267 Column_2268 Column_2269 Column_2270 Column_2271 Column_2272 Column_2273 Column_2274 Column_2275 Column_2276 Column_2277 Column_2278 Column_2279 Column_2280 Column_2281 Column_2282 Column_2283 Column_2284 Column_2285 Column_2286 Column_2287 Column_2288 Column_2289 Column_2290 Column_2291 Column_2292 Column_2293 Column_2294 Column_2295 Column_2296 Column_2297 Column_2298 Column_2299 Column_2300 Column_2301 Column_2302 Column_2303 Column_2304 Column_2305 Column_2306 Column_2307 Column_2308 Column_2309 Column_2310 Column_2311 Column_2312 Column_2313 Column_2314 Column_2315 Column_2316 Column_2317 Column_2318 Column_2319 Column_2320 Column_2321 Column_2322 Column_2323 Column_2324 Column_2325 Column_2326 Column_2327 Column_2328 Column_2329 Column_2330 Column_2331 Column_2332 Column_2333 Column_2334 Column_2335 Column_2336 Column_2337 Column_2338 Column_2339 Column_2340 Column_2341 Column_2342 Column_2343 Column_2344 Column_2345 Column_2346 Column_2347 Column_2348 Column_2349 Column_2350 Column_2351 Column_2352 Column_2353 Column_2354 Column_2355 Column_2356 Column_2357 Column_2358 Column_2359 Column_2360 Column_2361 Column_2362 Column_2363 Column_2364 Column_2365 Column_2366 Column_2367 Column_2368 Column_2369 Column_2370 Column_2371 Column_2372 Column_2373 Column_2374 Column_2375 Column_2376 Column_2377 Column_2378 Column_2379 Column_2380
feature_infos=[0.00016624844283796847:0.99985897541046143] [2.4912308163038688e-06:0.76674938201904297] [0:0.49591511487960815] [0:0.38440236449241638] [0:0.38548162579536438] [0:0.94969630241394043] [0:0.34602090716362] [0:0.54968684911727905] [0:0.77699720859527588] [0:0.4179348349571228] [0:0.34839138388633728] [3.3746570693438116e-07:0.45330652594566345] [0:0.3357204794883728] [0:0.41947534680366516] [0:0.4298349916934967] [0:0.35096639394760132] [1.4293250387709122e-06:0.38103899359703064] [0:0.31957724690437317] [0:0.83760428428649902] [0:0.88364976644515991] [0:0.22599115967750549] [0:0.36427628993988037] [0:0.17270419001579285] [0:0.37981635332107544] [0:0.20540829002857208] [0:0.12815652787685394] [0:0.32125663757324219] [0:0.22269995510578156] [0:0.25035056471824646] [0:0.20307531952857971] [0:0.16710843145847321] [0:0.43247812986373901] [0:0.62716782093048096] [0:0.66448420286178589] [0:0.37000745534896851] [0:0.19864127039909363] [0:0.25383761525154114] [0:0.45412248373031616] [0:0.21118974685668945] [0:0.35568869113922119] [0:0.38771152496337891] [0:0.14737823605537415] [0:0.32844692468643188] [0:0.18555076420307159] [0:0.205222487449646] [0:0.16632489860057831] [0:0.99081182479858398] [0:0.415692538022995] [0:0.99936944246292114] [0:0.37917736172676086] [0:0.33159205317497253] [0:0.50389260053634644] [0:0.24621415138244629] [0:0.20455728471279144] [0:0.23601675033569336] [0:0.419464111328125] [0:0.49943384528160095] [0:0.33159869909286499] [0:0.29082849621772766] [0:0.34377971291542053] [0:0.14692625403404236] [0:0.15012499690055847] [0:0.11752697825431824] [0:0.34686645865440369] [0:0.29519611597061157] [0:0.83557939529418945] [0:0.19496108591556549] [0:0.20975418388843536] [0:0.35201016068458557] [3.3746570693438116e-07:0.16568802297115326] [0:0.62012398242950439] [0:0.2467510998249054] [0:0.40033739805221558] [0:0.25390869379043579] [0:0.2575221061706543] [0:0.16567765176296234] [0:0.99506878852844238] [3.3746570693438116e-07:0.48807203769683838] [0:0.23961380124092102] [0:0.14875665307044983] [6.7493141386876232e-07:0.31133741140365601] [0:0.3317875862121582] [0:0.23956069350242615] [0:0.19950759410858154] [0:0.24579338729381561] [0:0.28969883918762207] [0:0.78197115659713745] [0:0.1658041775226593] [0:0.95789724588394165] [0:0.24751788377761841] [2.9370301035669399e-07:0.16579554975032806] [0:0.1149536669254303] [0:0.25395488739013672] [0:0.14892159402370453] [0:0.1804211437702179] [0:0.36720976233482361] [0:0.1226470023393631] [0:0.3332136869430542] [0:0.177978515625] [0:0.78930294513702393] [0:0.11375635862350464] [0:0.16582095623016357] [0:0.75623273849487305] [0:0.25815114378929138] [0:0.13619838654994965] [0:0.36208972334861755] [0:0.16565094888210297] [0:0.29153645038604736] [0:0.16567716002464294] [0:0.27693188190460205] [0:0.087963767349720001] [0:0.22207590937614441] [0:0.33672162890434265] [0:0.70208889245986938] [0:0.17200316488742828] [0:0.32833421230316162] [0:0.23959004878997803] [0:0.19696970283985138] [0:0.16580082476139069] [0:0.69627887010574341] [0:0.17526055872440338] [0:0.36651608347892761] [0:0.1038304790854454] [0:0.15016867220401764] [0:0.17285972833633423] [0:0.13768325746059418] [0:0.16817565262317657] [0:0.40921437740325928] [0:0.42513689398765564] [0:0.2084263414144516] [0:0.15363156795501709] [0:0.26397725939750671] [0:0.14525052905082703] [0:0.11822161823511124] [0:0.13593946397304535] [0:0.3058745265007019] [0:0.33475098013877869] [0:0.14628060162067413] [0:0.33182445168495178] [0:0.1363813579082489] [0:0.23959662020206451] [0:0.43122601509094238] [0:0.13689526915550232] [0:0.13663817942142487] [0:0.84282028675079346] [0:0.12517756223678589] [0:0.12071874737739563] [0:0.15058699250221252] [0:0.16500751674175262] [0:0.2032313197851181] [0:0.11430913209915161] [0:0.13012754917144775] [0:0.096890375018119812] [0:0.32512488961219788] [0:0.10512011498212814] [0:0.50369530916213989] [0:0.17103239893913269] [0:0.12426817417144775] [0:0.23963372409343719] [0:0.15280871093273163] [0:0.22095523774623871] [0:0.1966433972120285] [0:0.18598215281963348] [0:0.220362588763237] [0:0.14291481673717499] [0:0.12642516195774078] [0:0.18860332667827606] [0:0.49100315570831299] [0:0.22620208561420441] [0:0.11804325878620148] [0:0.34707355499267578] [0:0.17083679139614105] [0:0.28895768523216248] [0:0.1912626326084137] [0:0.14939452707767487] [0:0.16523760557174683] [0:0.187418133020401] [0:0.148040771484375] [0:0.1717631071805954] [0:0.13758139312267303] [0:0.21602536737918854] [0:0.1572868674993515] [0:0.28065985441207886] [0:0.25294098258018494] [0:0.31137463450431824] [0:0.30587202310562134] [0:0.12808829545974731] [0:0.18911351263523102] [0:0.1987033486366272] [0:0.14179442822933197] [0:0.55014222860336304] [0:0.30213409662246704] [0:0.94355571269989014] [0:0.3200206458568573] [0:0.26866185665130615] [0:0.74919837713241577] [0:0.15515689551830292] [0:0.14749768376350403] [0:0.15832807123661041] [0:0.24674636125564575] [0:0.12415724247694016] [0:0.12855935096740723] [0:0.16445654630661011] [0:0.13914506137371063] [0:0.89241945743560791] [0:0.24142986536026001] [0:0.1804678738117218] [0:0.37525740265846252] [0:0.4056420624256134] [0:0.20762130618095398] [0:0.29790842533111572] [0:0.23028188943862915] [0:0.15939895808696747] [0:0.30455663800239563] [0:0.10828156769275665] [0:0.4664166271686554] [0:0.19960173964500427] [0:0.42823141813278198] [0:0.66574865579605103] [0:0.64606410264968872] [0:0.12273091077804565] [0:0.21959744393825531] [0:0.22444495558738708] [0:0.51207011938095093] [0:0.4941556453704834] [0:0.19227077066898346] [0:0.1842712014913559] [0:0.19900262355804443] [0:0.45640900731086731] [0:0.24178721010684967] [0:0.15773804485797882] [0:0.40976050496101379] [0:0.67482125759124756] [0:0.24971865117549896] [0:0.325123131275177] [0:0.21762652695178986] [0:0.27022078633308411] [0:0.35607978701591492] [0:0.24482066929340363] [0:0.30094039440155029] [0:0.6075129508972168] [0:0.38254109025001526] [0:0.78041744232177734] [0:0.16386771202087402] [0:0.18779054284095764] [0:0.43178808689117432] [0:0.31923520565032959] [0:0.26886162161827087] [0:0.3572252094745636] [0:0.15337570011615753] [0:0.48228311538696289] [0:0.3568207323551178] [0:0.26123601198196411] [0:0.61397767066955566] [0:0.4681609570980072] [0:0.95258229970932007] [0:0.99948954582214355] [0:0.9441145658493042] [0:0.99068653583526611] [0:0.99931693077087402] [0:0.9950597882270813] [0:0.95738333463668823] [0:0.66120636463165283] [0:0.55995219945907593] [0:0.26140120625495911] [0:0.83064514398574829] [0:0.32441473007202148] [0:0.30940279364585876] [0:0.9416499137878418] [0:0.62352943420410156] [0:0.59735876321792603] [0:0.94496989250183105] [0:0.92189949750900269] [0:0.10198686271905899] [0:0.12652195990085602] [0:0.38172325491905212] [0:0.064430110156536102] [0:0.20219916105270386] [0:0.17152987420558929] [0:0.17423716187477112] [0:0.06915660947561264] [0:0.052450284361839294] [0:0.046137608587741852] [0:0.074284568428993225] [0:0.12021525204181671] [0:0.18578667938709259] [0:0.15326383709907532] [0:0.70383626222610474] [0:0.962890625] [0:0.20112287998199463] [0:0.27877986431121826] [0:0.83801066875457764] [0:0.11138617247343063] [0:0.11747048050165176] [0:0.2866961658000946] [0:0.18573349714279175] [0:0.043998260051012039] [0:0.045960154384374619] [0:0.028476361185312271] [0:0.058879472315311432] [0:0.19489067792892456] [0:0.66698825359344482] [0:0.13269565999507904] [0:0.60425788164138794] [0:0.92317706346511841] [0:0.37688848376274109] [0:0.6559377908706665] [0:0.59789550304412842] [0:0.35959893465042114] [0:0.33177059888839722] [0:0.31803596019744873] [0:0.66354119777679443] [0:0.33426842093467712] [0:0.1574280709028244] [0:0.41178157925605774] [0:0.21559140086174011] [0:0.50546801090240479] [0:0.27745005488395691] [0:0.45994794368743896] [0:0.64414536952972412] [0:0.87434893846511841] [0:0.2781224250793457] [0:0.29296875] [0:0.56669241189956665] [0:0.4075864851474762] [0:0.23397523164749146] [0:0.32818487286567688] [0:0.26615014672279358] [0:0.27808913588523865] [0:0.078698731958866119] [0:0.071219943463802338] [0:0.12567643821239471] [0:0.53429234027862549] [0:0.145464688539505] [0:0.28359293937683105] [0:0.46546977758407593] [0:0.82666015625] [0:0.27269828319549561] [0:0.28482076525688171] [0:0.49943098425865173] [0:0.46584552526473999] [0:0.39634907245635986] [0:0.33160722255706787] [0:0.33213642239570618] [0:0.13440681993961334] [0:0.31074574589729309] [0:0.15436576306819916] [0:0.17753824591636658] [0:0.24947302043437958] [0:0.24045552313327789] [0:0.21492026746273041] [0:0.39584782719612122] [0:0.75637662410736084] [0:0.42442885041236877] [0:0.36698353290557861] [0:0.58045238256454468] [0:0.35946881771087646] [0:0.39906734228134155] [0:0.46536043286323547] [0:0.2770000696182251] [0:0.30578082799911499] [0:0.32492676377296448] [0:0.27087923884391785] [0:0.31967756152153015] [0:0.23063109815120697] [0:0.32493111491203308] [0:0.32493111491203308] [0:0.34049093723297119] [0:0.73583984375] [0:0.22669713199138641] [0:0.408124178647995] [0:0.58029919862747192] [0:0.33133870363235474] [0:0.41447597742080688] [0:0.43703705072402954] [0:0.20955061912536621] [0:0.15667402744293213] [0:0.2890625] [0:0.47130903601646423] [0:0.193312868475914] [0:0.20855392515659332] [0:0.33286961913108826] [0:0.20645031332969666] [0:0.37092703580856323] [0:0.669921875] [0:0.275389164686203] [0:0.37361675500869751] [0:0.41447517275810242] [0:0.2497190535068512] [0:0.24389365315437317] [0:0.38270837068557739] [0:0.24971885979175568] [0:0.23943662643432617] [0:0.23943662643432617] [0:0.43690204620361328] [0:0.18418483436107635] [0:0.13606369495391846] [0:0.19895242154598236] [0:0.4510498046875] [0:0.25967025756835938] [0:0.62353515625] [0:0.19881294667720795] [0:0.29746094346046448] [0:0.33131685853004456] [0:0.27294921875] [0:0.33124971389770508] [0:0.35110771656036377] [0:0.28765538334846497] [0:0.26120996475219727] [0:0.13879559934139252] [0:0.17073434591293335] [0:0.1577412337064743] [0:0.1581023633480072] [0:0.18972910940647125] [0:0.14096519351005554] [0:0.2939453125] [0:0.583740234375] [0:0.2836449146270752] [0:0.20893265306949615] [0:0.19908665120601654] [0:0.216064453125] [0:0.32905498147010803] [0:0.23823031783103943] [0:0.18429006636142731] [0:0.14954793453216553] [0:0.12669819593429565] [0:0.12921768426895142] [0:0.13258986175060272] [0:0.13080929219722748] [0:0.18288147449493408] [0:0.2300579696893692] [0:0.24192936718463898] [0:0.51433688402175903] [0:0.33323568105697632] [0:0.23104366660118103] [0:0.44912678003311157] [0:0.238525390625] [0:0.14956769347190857] [0:0.19953469932079315] [0:0.15001246333122253] [0:0.16079951822757721] [0:0.13832421600818634] [0:0.19198331236839294] [0:0.21409817039966583] [0:0.14801725745201111] [0:0.23472200334072113] [0:0.14143534004688263] [0:0.37258973717689514] [0:0.45556640625] [0:0.2434266209602356] [0:0.15907023847103119] [0:0.33523693680763245] [0:0.4310404360294342] [0:0.23674142360687256] [0:0.17092497646808624] [0:0.12425866723060608] [0:0.18615472316741943] [0:0.23363792896270752] [0:0.12232112884521484] [0:0.14515741169452667] [0:0.16616261005401611] [0:0.13119523227214813] [0:0.17708984017372131] [0:0.37819585204124451] [0:0.40576171875] [0:0.27898696064949036] [0:0.29160183668136597] [0:0.28285318613052368] [0:0.24249650537967682] [0:0.18267515301704407] [0:0.1728074699640274] [0:0.14228023588657379] [0:0.17100298404693604] [0:0.14959873259067535] [0:0.23967176675796509] [0:0.18620443344116211] [0:0.25631511211395264] [0:0.19009406864643097] [0:0.16068670153617859] [0:0.33873525261878967] [0:0.30810546875] [0:0.14238017797470093] [0:0.22885154187679291] [0:0.1803126186132431] [0:0.2042236328125] [0:0.27302965521812439] [0:0.20412059128284454] [0:0.1539618968963623] [0:0.1583658903837204] [0:0.13426528871059418] [0:0.16209505498409271] [0:0.24063889682292938] [0:0.2934662401676178] [0:0.11537740379571915] [0:0.29351896047592163] [0:0.20063872635364532] [0:0.21240234375] [0:0.1219906285405159] [0:0.14756040275096893] [0:0.16232688724994659] [0:0.14026917517185211] [0:0.12330537289381027] [0:0.13884137570858002] [0:0.13429506123065948] [0:0.14016717672348022] [0:0.12140070647001266] [0:0.13422244787216187] [0:0.15830621123313904] [0:0.14542928338050842] [0:0.142992302775383] [0:0.13039682805538177] [0:0.16863365471363068] [0:1990080] [0:222715.609375] [0:61745440] [0:0.94991189241409302] [0:0.89032119512557983] [0:0.96947723627090454] [0:0.72028636932373047] [0:0.92907601594924927] [0:0.93523102998733521] [0:0.69854211807250977] [0:0.8742985725402832] [0:0.41057485342025757] [0:0.63145995140075684] [0:0.43920764327049255] [0:0.44730225205421448] [0:0.65373653173446655] [0:0.51781231164932251] [0:0.99973249435424805] [0:0.90210056304931641] [0:0.99983775615692139] [0:0.57963788509368896] [0:0.69841015338897705] [0:0.90399634838104248] [0:0.69063717126846313] [0:0.527912437915802] [0:0.66944015026092529] [0:0.82943630218505859] [0:0.96936947107315063] [0:0.46357148885726929] [0:0.90403193235397339] [0:0.64148235321044922] [0:0.35472479462623596] [0:0.38542187213897705] [0:0.62939661741256714] [0:0.87220209836959839] [0:0.94689005613327026] [0:0.89056640863418579] [0:0.69676291942596436] [0:0.60878634452819824] [0:0.7737351655960083] [0:0.87006378173828125] [0:0.97542047500610352] [0:0.66934365034103394] [0:0.93481588363647461] [0:0.5495719313621521] [0:0.5204007625579834] [0:0.35909244418144226] [0:0.99969291687011719] [0:0.94748818874359131] [0:0.54783093929290771] [0:0.47605621814727783] [0:0.71296608448028564] [0:0.66138839721679688] [0:0.81145548820495605] [0:0.71465331315994263] [0:0.93168401718139648] [0:0.68021184206008911] [0:0.98164081573486328] [0:0.56880670785903931] [0:0.99834603071212769] [0:0.65838062763214111] [0:0.77012884616851807] [0:0.59659594297409058] [0:0.32538342475891113] [0:0.44358044862747192] [0:0.84197151660919189] [0:0.73777168989181519] [0:0.39478641748428345] [0:0.95869308710098267] [0:0.84591096639633179] [0:0.98736047744750977] [0:0.33183115720748901] [0:0.6668088436126709] [0:0.99150323867797852] [0:0.54528379440307617] [0:0.50742524862289429] [0:0.92362868785858154] [0:0.30353060364723206] [0:0.72913694381713867] [0:0.36011740565299988] [0:0.75775146484375] [0:0.5706251859664917] [0:0.90914052724838257] [0:0.98002344369888306] [0:0.98043620586395264] [0:0.5659063458442688] [0:0.85809886455535889] [0:0.9279402494430542] [0:0.60400617122650146] [0:0.70391589403152466] [0:0.95418590307235718] [0:0.50725466012954712] [0:0.96660768985748291] [0:0.72784888744354248] [0:0.61086183786392212] [0:0.44295462965965271] [0:0.73273491859436035] [0:0.44373005628585815] [0:0.84983235597610474] [0:6.5849499702453613] [0:7043] [0:10923] [0:2492] [1:7569] [266:325353696] [512:4278288384] [0:1] [0:51639] [0:22092] [0:1] [0:1] [0:1] [0:1] [0:266130] [0:4294967296] none [-1:1] none [0:1] [-1:0] [0:1] [-1:1] [-1:0] [0:1] none [-1:0] none [-1:0] [-1:3] [-2:0] [-1:0] [-1:1] [0:1] [-1:1] [0:1] [0:1] none [-1:0] none [-1:0] none none [-1:1] [-1:1] [-1:0] [0:1] [-2:1] none [-1:2] [-1:0] [-1:0] none [-1:0] [-1:0] none none [-1:0] none none [0:1] none none none none none [0:65228] [0:63806] [0:255] [0:255] [0:65535] [0:18327] [0:1024] [0:4352] [0:4294967296] [0:8404992] [0:1912438144] [0:187] [0:94] [0:20] [0:132] [0:96] [-5127680:440336384] [-21008896:3505664] [-8011264:5235712] [-12300288:6596608] [-12288512:5925888] [-54708736:6428672] [-22352896:42213888] [-7922176:5960192] [-2269696:15464448] [-20103100:8214528] [-37474304:10612736] [-25633552:4694016] [-31806464:7776768] [-7779840:9392640] [-13771776:2415919104] [-12488704:64479744] [-3163648:7662080] [-43184640:13342208] [-12487168:25908736] [-12302848:22999040] [-4278190080:11653120] [-87165440:6588928] [-16515072:27885568] [-18100224:8620468] [-8938496:23080960] [-17384448:5698048] [-2957312:97679872] [-9018368:10485760] [-56075776:3889664] [-14605312:86837248] [-6016512:6873088] [-28913664:12646400] [-133169152:9736192] [-6083072:7847680] [-20528732:26759116] [-11499008:894104064] [-1798144:5389894] [-9268736:7359488] [-83938304:12301312] [-25066496:18143744] [-12288000:3412992] [-153455616:29249536] [-3307008:3169280] [-7946752:421269504] [-9598464:5153792] [-10223616:9810432] [-11283968:15880192] [-18126336:3671552] [-6853632:5430784] [-10618368:15430656] [-7.9988036155700684:70.362747192382812] [-27.197658538818359:12.915229797363281] [-24.073484420776367:39.950992584228516] [-36.078102111816406:11.995791435241699] [-15.95733642578125:21.131023406982422] [-53.380771636962891:23.332283020019531] [-35.752601623535156:12.475888252258301] [-22.11688232421875:7.9995636940002441] [-15.915664672851562:15.539344787597656] [-36.364612579345703:19.220184326171875] [-15.13631534576416:131.6846923828125] [-47.945178985595703:14.418272018432617] [-11.983894348144531:8.2605667114257812] [-15.460736274719238:36.527496337890625] [-8.0456390380859375:233.33097839355469] [-15.850338935852051:36.434276580810547] [-13.254033088684082:13.044930458068848] [-15.936455726623535:15.924150466918945] [-12.83250617980957:13.656778335571289] [-662.1695556640625:15.043258666992188] [-21.43492317199707:19.037235260009766] [-18.153844833374023:12.178011894226074] [-9.9572868347167969:15.896208763122559] [-48.624561309814453:13.876657485961914] [-7.9999542236328125:13.899710655212402] [-29.889583587646484:10.160569190979004] [-23.762502670288086:80.698013305664062] [-43.034198760986328:95.627204895019531] [-15.794822692871094:9.2227077484130859] [-24.702960968017578:10.983846664428711] [-23.392583847045898:16.615924835205078] [-50.430000305175781:67.247344970703125] [-89.610137939453125:14.027170181274414] [-7.9997773170471191:15.953891754150391] [-15.976808547973633:7.9999589920043945] [-14.114391326904297:12.20008373260498] [-7.9996118545532227:19.039682388305664] [-21.687829971313477:15.502592086791992] [-34.307849884033203:31.715904235839844] [-38.726741790771484:15.848713874816895] [-101.87334442138672:12.678409576416016] [-423.50973510742188:30.035459518432617] [-85.839805603027344:15.166115760803223] [-11.035452842712402:42.511638641357422] [-7.9997949600219727:23.442756652832031] [-11.208524703979492:15.502218246459961] [-7.9999518394470215:15.212059020996094] [-8.6597843170166016:20.398822784423828] [-14.734189987182617:12.550816535949707] [-15.286102294921875:9.9516973495483398] [-6161660:850280320] [-21008896:38040496] [-923795456:22615196] [-12299888:6795264] [-107597824:1631782912] [-638582784:11673600] [-22352454:42213712] [-15912953:93368320] [-15474688:8314887] [-51023244:31467936] [-54362112:12443648] [-31326208:12013568] [-31809536:10581948] [-7779568:24989696] [-6790464:268591104] [-12488704:64479588] [-8435168:268436576] [-43184144:36073472] [-26935296:25908416] [-12302352:23003136] [-2034369536:12393124] [-87164856:101711872] [-16920576:90320896] [-18096192:8622080] [-8938192:75465112] [-19869696:8658298] [-31467936:97679624] [-10817536:12652544] [-56078336:8382620] [-13751116:717225984] [-6017024:11768250] [-38711296:41523916] [-694765312:9714624] [-15921152:11296768] [-20529152:240009216] [-360019456:894107648] [-12656640:12656640] [-9265693:7359216] [-83938184:18467280] [-137736192:175412736] [-12287552:12397968] [-536874048:29249536] [-19787776:110410024] [-7946560:421269184] [-24945152:14585856] [-16668416:9810224] [-13209600:15876487] [-1634036864:6001898] [-22898588:1951622528] [-10625024:2588672] [-2:4] [0:2] [-1:3] [-8:2] [-7:2] [-2:2] none [-3:0] [-2:2] [0:4] [-1:3] [-4:0] [-1:1] [-2:3] [0:2] [-2:2] none [-8:4] [-2:0] none [-5:2] [-2:4] [-3:1] [0:2] none [0:2] [-2:4] [-3:0] [0:3] [-2:4] [0:2] [-5:2] [-3:8] [-2:2] [0:2] [-2:0] [-2:2] [-8:2] [-2:0] [-6:3] none [-2:3] [0:3] [-2:7] [-3:2] [-2:2] [-2:2] [-1:0] none [-3:0] [0:18] none [-3:0] none [0:8] none none none [0:13] [0:8] [-8:0] none none [-130:0] [0:1] none none none none none none [0:14] [-2:10] [-1:130] none [-1:0] none none [0:65] none none none none none [0:1] [-4:1] [0:3] [0:15] none none none none [0:1] none none [0:14] none [-65:0] [-10:0] [0:12] [-1:2] [-1:1] [-2:2] [-2:2] [-1:3] [-2:2] [-1:1] [-2:2] [-2:1] [-1:2] [-2:1] [-2:2] [-2:2] [-2:1] [-1:1] [-1:2] [-2:2] [-1:1] [-2:1] [-2:1] [-2:2] [-2:2] [-1:1] [-1:2] [-2:1] [-2:3] [-1:2] [-2:2] [-2:1] [-1:2] [-3:1] [-2:2] [-2:2] [-2:1] [-1:2] [-1:2] [-2:1] [-1:2] [-2:2] [-1:2] [-2:1] [-1:2] [-1:2] [-3:2] [-2:2] [-1:3] [-2:1] [-2:2] [-2:1] [-2:1] [-1:2] [-2:2] [-2:2] [-2:2] [-2:2] [-1:1] [-2:1] [-2:2] [-2:1] [-2:1] [-1:2] [-2:1] [-2:2] [-2:2] [-2:3] [-1:2] [-2:1] [-2:1] [-2:1] [-2:2] [-2:2] [-2:1] [-2:1] [-1:1] [-1:2] [-2:2] [-1:1] [-1:1] [-1:2] [-1:1] [-2:1] [-2:2] [-1:2] [-2:1] [-2:2] [-1:1] [-2:2] [-1:2] [-2:1] [-2:1] [-1:1] [-1:2] [-1:1] [-2:2] [-2:2] [-2:2] [-2:2] [-2:2] [-2:2] [-2:1] [-3:3] [-2:2] [-1:2] [-1:3] [-2:2] [-1:1] [-2:2] [-2:2] [-2:1] [-2:1] [-1:2] [-1:2] [-1:2] [-1:1] [-1:2] [-2:1] [-2:2] [-1:3] [-2:2] [-2:2] [-2:2] [-1:3] [-2:2] [-1:1] [-2:2] [-2:1] [-1:1] [-2:2] [-2:2] [-2:1] [-2:2] [-1:2] [-1:1] [-2:2] [-2:1] [-2:2] [-2:2] [-1:1] [-1:2] [-2:3] [-1:1] [-2:2] [-2:3] [-2:1] [-3:1] [-2:1] [-2:1] [-2:1] [-2:2] [-2:1] [-2:2] [-2:2] [-1:2] [-1:1] [-2:1] [-2:1] [-1:2] [-2:1] [-1:1] [-2:2] [-2:1] [-2:2] [-2:2] [-1:1] [-2:1] [-2:2] [-2:1] [-1:1] [-2:2] [-3:2] [-1:2] [-1:2] [-1:1] [-3:1] [-2:1] [-1:2] [-1:2] [-1:1] [-2:1] [-2:2] [-1:2] [-2:1] [-1:1] [-2:1] [-1:2] [-2:1] [-2:2] [-2:2] [-2:1] [-2:2] [-1:1] [-1:2] [-1:2] [-2:2] [-2:2] [-2:1] [-2:2] [-1:2] [-2:1] [-1:1] [-2:3] [-2:3] [-1:3] [-2:2] [-1:1] [-2:1] [-1:2] [-1:1] [-2:1] [-2:1] [-2:2] [-2:1] [-1:2] [-2:2] [-2:2] [-2:2] [-1:2] [-1:2] [-2:2] [-2:3] [-2:2] [-3:1] [-1:2] [-2:2] [-2:2] [-2:1] [-1:1] [-1:2] [-1:2] [-2:2] [-2:1] [-2:1] [-1:2] [-2:1] [-2:2] [-2:2] [-1:1] [-2:2] [-2:2] [-1:4] [-2:2] [-2:1] [-2:2] [-2:1] [-1:1] [-1:1] [-2:2] [-2:2] [-1:3] [-2:3] [-1:2] [-1:1] [-1:2] [-2:1] [-1:2] [-2:2] [-5:27] [-15:5] [-5:5] [-7:6] [-10:13] [-26:754] [-21:496] [-5:31] [-7:6] [-5:7] [-7:548] [-9:5] [-8:13] [-5:11] [-10:3122] [-9:71] [-21:887] [-16:5] [-24:3738] [-8:8] [-6:10] [-17:11] [-7:8] [-5:42] [-6:8] [-6:2395] [-7:8] [-9:6] [-6:12] [-8:11] [-4:6] [-22:10] [-13:6] [-9:20] [-43:7] [-12295:6] [-18:5] [-18:6] [-7:515] [-5:13] [-10:10] [-14:5] [-6:6] [-7:21] [-7:12] [-3625:8] [-30:11] [-100:30] [-27:5] [-7:9] [-19:7] [-28:8] [-31:11] [-12:23] [-6:14] [-14:6] [-15:8] [-5:11] [-6:651] [-5:13] [-5:7] [-7:15] [-7:7] [-6:17] [-4:33] [-6:8] [-5:5] [-15:241] [-14:203] [-11:10] [-16:6] [-4:62] [-6:6] [-6:8] [-8:6] [-31:5] [-13:6] [-8:6] [-5:16] [-14:6] [-10:1329] [-20:9] [-23:7] [-237:83] [-5:30] [-2082:5] [-5:20] [-14:7] [-6:3569] [-14:6] [-23:7] [-12:1542] [-8:7] [-7:5] [-8:4] [-16:20] [-20:16] [-18:6] [-12:5] [-15:6] [-23:7] [-13:7] [-6:9] [-7:6] [-8:346] [-23:7] [-9:11] [-5:326] [-57:21] [-20:9] [-6:12] [-29:1242] [-8:9] [-5:82] [-6:10] [-25:5] [-5:23] [-9:7] [-13:11] [-7:9] [-1382:12] [-8:6] [-12:5] [-8:7] [-17:24] [-21:59] [-16:8] [-6:7] [-8:16] [-18:629] [-19:9] [-5:8] [-27:7] [-22:441] [-13:7] [-16:9] [-6:13] [-22:5] [-976:43] [-9:9] [-6:24] [-13:6] [-7:20] [-7:13] [-18:16] [-14:7] [-415:9] [-7:707] [-1763:5] [-18:9] [-6:5] [-4:6] [-40:7] [-7:15] [-6:20] [-9:6] [-13:1569] [-20:15] [-16:7] [-13:8] [-11:6] [-5:25] [-8:61] [-5:12] [-23:100] [-116:9] [-6:368] [-5:23] [-5:16] [-5:11] [-5:14] [-6:8] [-15:7] [-30:8] [-11:10] [-5:7] [-6:8] [-7:12] [-10:10] [-7:8] [-6:6] [-8:17] [-3862:7] [-7:6] [-38:6] [-148:20] [-5:249] [-50:8] [-11:5] [-173:41] [-14:11] [-7:9] [-9:6] [-9:3462] [-5:7] [-14:8] [-25:11] [-6:6] [-5:7] [-9:22] [-7:15] [-52:30] [-13:7] [-6:41] [-7:4] [-5:6] [-215:7] [-20:6] [-5:18] [-6:407] [-5:32] [-10:197] [-38:16] [-5:8] [-8:6] [-18:6] [-11:20] [-25:6] [-12:8] [-27:6] [-11:6] [-26:5] [-7:8] [-7:7] [-110:4] [-31:6] [-5:4133] [-32:9] [-6:7] [-1604:7] [-16:6] [-7:5] [-682:8] [-6:11] [-9:33] [-23:5] [-453:6] [-7:6] [-12:569] [-30:9] [-10:4] [-6:63] [-50:14] [-799:14] [-21:8] [-39:7] [-10:10] [-7:7] [-19:7] [-6:20] [-5:13] [-7:6] [-6:13] [-15:7] [-7:16] [-5:11] [-1642:22] [-7:5] [-9:2967] [-13:8] [-8:19] [-8:6] [-5:1128] [-20:838] [-225:62] [-1571:406] [-22:9] [-6:7] [-15:9] [-27:12] [-7:19] [-8:5] [-5:10] [-8:6] [-6:11] [-7:6] [-7:6] [-5:35] [-8:5] [-18:5] [-12:5] [-8:38] [-11:12] [-16:11] [-20:6] [-6:216] [-16:1782] [-6:8] [-7:6] [-704:6] [-7:307] [-6:10] [-16:16] [-1475:6] [-12:7] [-8:21] [-618:4] [-5:26] [-12:5] [-17:5] [-5:1578] [-4:122] [-7:12] [-8:7] [-18:307] [-6:337] [-248:18] [-19:5] [-4:8] [-21:6] [-8:9] [-5:20] [-20:7] [-7:2660] [-24:6] [-18:7] [-2278:8] [-5:31] [-7:14] [-9:8] [-5:23] [-6:14] [-21:4] [-22:17] [-18:8] [-14:7] [-4:17] [-7:10] [-8:5] [-7:25] [-24:6] [-5:17] [-4:10] [-10:21] [-18:6] [-17:10] [-5:9] [-5:5] [-7:17] [-30:12] [-26:8] [-83163:6] [-213:9] [-397:6] [-7:7] [-11:7] [-15:6] [-11:7] [-4:21] [-10:24] [-10:9] [-6:9] [-6:32] [-6:23] [-18:13] [-5:17] [-15:6] [-8:8] [-6:5] [-393:6] [-8:5] [-7:17] [-9:1430] [-23:34] [-13:8] [-6:14] [-8:16] [-5:9] [-4:15] [-8:1084] [-9:9] [-24:8] [-19:8] [-7:103] [-11:6] [-387:461] [-7:18] [-9:5] [-8:7] [-14:1939] [-386:11] [-231:10] [-6:20] [-26:5] [-57:6] [-6:17] [-9:235] [-7:7] [-1884:7] [-1166:18] [-23:7] [-1659:10] [-4016:33] [-5:6] [-7:5] [-6:5] [-6:38] [-2598:36] [-623:6] [-10:6] [-7:17] [-6:11] [-7:6] [-102:22] [-7:10] [-944:12] [-13:7] [-22:18] [-12:10] [-29:6] [-14:14] [-10:8] [-10:5] [-16:7] [-11:8] [-7:6] [-3509:6] [-14:11] [-18:215] [-16:9] [-6:8] [-1526:8] [-20:6] [-28:12] [-8:7] [-145:14] [-185:8] [-10:13] [-37:9] [-266:6] [-2550:20] [-709:5] [-6:18] [-7:33] [-6:13] [-15:969] [-10:7] [-13:6] [-6:445] [-6:446] [-8:35] [-10:6] [-5:390] [-11:10] [-32:5] [-4:10] [-329:96] [-35:6] [-18:4] [-505:12] [-8:13] [-6:10] [-15:6] [-6:6] [-6:13] [-12:6] [-6:32] [-16:10] [-8:24] [-5:8] [-188:5] [-10:6] [-5:15] [-14:6] [-5:8] [-1751:6] [-8:23] [-9:1083] [-21:7] [-5:19] [-20:6] [-10:30] [-9:27] [-11:6] [-7:6] [-7:11] [-37:4] [-2770:5] [-8:11] [-8:5] [-10:4] [-7:31] [-10:9] [-11:34] [-8:9] [-22:11] [-5:7] [-333:6] [-25:6] [-144:14] [-19:379] [-9:6] [-10:6] [-4:5] [-9:738] [-7:21] [-5:576] [-25:7] [-10:12] [-6:14] [-3080:8] [-9:14] [-7:7] [-3951:23] [-3410:16] [-15:7] [-8:13] [-4:25] [-19:8] [-6:15] [-7:7] [-7:15] [-35:16] [-7:9] [-6:724] [-6:41] [-6:17] [-10:38] [-598:6] [-418:9] [-29:8] [-8:26] [-6:8] [-165:264] [-12:162] [-22:14] [-5:19] [-5:747] [-10:29] [-15:15] [-5:24] [-18:45] [-8:6] [-9:12] [-8:10] [-7:89] [-17:7] [-6:15] [-7:11] [-8:14] [-9:668] [-8:9] [-3172:11] [-4:6] [-59:10] [-5:13] [-22:11] [-7:13] [-7:5] [-20:5] [-8:8] [-20:5] [-11:15] [-149:5] [-364:10] [-7:8] [-6:5] [-5:19] [-5:24] [-20:5] [-15:5] [-13:8] [-6:1291] [-16:5] [-6:8] [-5:11] [-6:20] [-24:508] [-6:8] [-6:8] [-6:6] [-8:6] [-11:19] [-5:39] [-5:29] [-11:824] [-5:5] [-4:10] [-22:8] [-12:295] [-9:11] [-11:6] [-13:6] [-820:5] [-12:4] [-1225:7] [-1716:24] [-7:11] [-5:14] [-16:6] [-6:5] [-5:7] [-8:2824] [-14:7] [-7:11] [-12:6] [-9:21] [-18:6] [-11:13] [-6:12] [-15:17] [-253:16] [-10:8] [-714:12] [-5:5] [-7:76] [-5:6] [-31:12] [-7:12] [-7:22] [-8:5] [-10:7] [-7:21] [-23:4] [-7:5] [-20:16] [-15:5] [-29:7] [-6:16] [-8:8] [-5:8] [-5:10] [-6:10] [-9:13] [-5:127] [-17:406] [-30:6] [-185:10] [-11:7] [-6:13] [-12:7] [-1022:15] [-9:10] [-10:1277] [-8:11] [-15:9] [-16:6] [-14:7] [-14:7] [-12:12] [-45:27] [-19:6] [-32:9] [-6:26] [-6:6] [-10:8] [-44:7] [-8:566] [-5:9] [-5:22] [-25:9] [-4:33] [-11:7] [-5:10] [-7:11] [-4:9] [-1061:25] [-6:8] [-840:7] [-7:6] [-14:6] [-7:650] [-6:7] [-9:16] [-6:31] [-733:11] [-9:6] [-2915:11] [-8:6] [-9:68] [-30:9] [-9:8] [-10:23] [-6:13] [-7:8] [-15:8] [-6:16] [-3223:7] [-10:9] [-16:7] [-5:8] [-8:7] [-665:7] [-5:5] [-583:10] [-5:8] [-5:26] [-12:10] [-7:6] [-33:9] [-20:10] [-6:23] [-7:8] [-7:9] [-757:26] [-17:8] [-6:6] [-10:13] [-8:5] [-8:6] [-119:181] [-9:8] [-8:6] [-5:6] [-5:18] [-5:6] [-14:21] [-9:28] [-10:6] [-20:7] [-9:5] [-7:6] [-9:4] [-21:8] [-6:9] [-10:23] [-6:1528] [-7:9] [-6:10] [-9:5] [-10:6] [-35:9] [-9:6] [-12:11] [-1679:5] [-8:14] [-6:121] [-7:28] [-922:13] [-12:9] [-5:208] [-9:15] [-7:64] [-24:1983] [-16:10] [-5:8] [-5:10] [-21:7] [-39:180] [-11:8] [-7:6] [-6:7] [-6:1084] [-12:9] [-272:9] [-412:5] [-157:12] [-515:8] [-2460:7] [-37:7] [-9:6] [-2224:94] [-11:5] [-24:8] [-50:6] [-10:8] [-26:14] [-5:10] [-6:18] [-10:6] [-11:5] [-39:41] [-7:22] [-6:28] [-6:14] [-3:7] [-8:13] [-7:13] [-9:589] [-827:5] [-7:9] [-7:6] [-5:1832] [-275:21] [-8:10] [-6:32] [-5:15] [-7:6] [-2131:6] [-5:10] [-5:11] [-6:7] [-9:4] [-27:6] [-13:171] [-10:5] [-11:7] [-5:6] [-6:6] [-8:7] [-6:8] [-1314:11] [-28:24] [-13:5] [-9:7] [-24:12] [-7:6] [-51:6] [-2868:5] [-14:261] [-13:7] [-7:583] [-6:7] [-24:7] [-23:9] [-17:6] [-659:9] [-6:1631] [-30:384] [-7:9] [-8:10] [-8:27] [-9:13] [-8:4] [-9:6] [-5:9] [-10:14] [-7:18] [-20:12] [-8:6] [-40:22] [-6:40] [-18:5] [-6:6] [-9:13] [-1398:8] [-6:8] [-7:11] [-5:20] [-13:37] [-108:7] [-6:5] [-16:324] [-376:12] [-10:17] [-6:20] [-29:5] [-9:6] [-14:6] [-9:443] [-552:7] [-7:101] [-768:6] [-8:17] [-10:6] [-9:10] [-13:12] [-9:9] [-14:10] [-6:8] [-7:15] [-13:34] [-7:14] [-2712:8] [-11:12] [-5:8] [-7:6] [-19:241] [-4:15] [-13:5] [-6:363] [-786:99] [-10:9] [-9:5] [-6:277] [-160:6] [-18:6] [-11:6] [-6:5] [-7:5] [-10:5] [-8:8] [-11:6] [-7:10] [-6:10] [-8:8] [-25:6] [-21:6] [-5:7] [-9:7] [-12:7] [-503:9] [-11:29] [-15:5] [-8:25] [-29:4] [-11:5] [-13:10] [-6:22] [-17:7] [-11:7] [-18:5] [-10:5] [-6:9] [-11:7] [-6:8] [-72:8] [-5:10] [-32:20] [-7:289] [-478:9] [-6:21] [-7:6] [-13:17] [-1029:19] [-9:9] [-12:6] [-11:5] [-4:15] [-6:6] [-7:4183] [-35:5] [-263:6] [-6:3855] [-6:6] [-5:11] [-6:7] [-15:6] [-7:9] [-6:644] [-9:6] [-25:11] [-13:31] [-7:413] [-38:6] [-15:6] [-24:5] [-7:8] [-7:6] [-6:17] [-654:7] [-3277:14] [-6564:7] [-7:5] [-10:5] [-17:5] [-10:920] [-8:20] [-4:8] [-7:5] [-30:7] [-5:43] [-982:37] [-6:6] [-730:801] [-16:7] [-6:25] [-12:3230] [-22:5] [-9:6] [-6:18] [-7:23] [-6:18] [-14:6] [-5:749] [-6:18] [-8:4] [-5:5] [-6:10] [-33:6] [-10:5] [-7:8] [-9:4] [-5:10] [-6:23] [-22:16] [-14:7] [-6:9] [-8:10] [-16:6] [-18:3027] [-6:1020] [-12:7] [-8:14] [-12:318] [-11:17] [-430:341] [-27:6] [-59:11] [-11:23] [-11:19] [-3419:7] [-61:8] [-883:2175] [-6:12] [-13:5] [-7:5] [-25:6] [-7:6] [-21:6] [-1146:5] [-7:7] [-14:23] [-12:5] [-6:12] [-863:14] [-6:7] [-5:12] [-8:6] [-15:6] [-7:13] [-6:9] [-8:7] [-6:488] [-7:7] [-16:864] [-6:11] [-8:14] [-16:8] [-8:6] [-9:9] [-6:657] [-9:12] [-6:9] [-12:7] [-15:7] [-12:22] [-16:9] [-13:8] [-8:9] [-54:7] [-10:6] [-8:7] [-6:4274] [-32:88] [-26:19] [-25:38] [-123:31] [-230:49] [-21:21] [-27:39] [-41:27] [-53:87] [-36:42] [-30:77] [-46:42] [-125:52] [-42:35] [-62:29] [-89:41] [-46:49] [-63:38] [-28:40] [-28:27] [-82:29] [-47:28] [-31:29] [-30:27] [-27:36] [-65:34] [-39:23] [-162:28] [-39:40] [-84:27] [-31:34] [-21:38] [-32:44] [-30:85] [-129:17] [-39:25] [-16:87] [-79:23] [-49:55] [-20:128] [-47:19] [-34:85] [-40:22] [-35:82] [-27:83] [-116:22] [-27:27] [-25:125] [-235:24] [-3807:54] [-27:29] [-48:22] [-26:39] [-41:25] [-89:28] [-39:19] [-41:26] [-121:36] [-28:92] [-26:42] [-130:33] [-30:43] [-27:82] [-22:38] [-42:40] [-45:23] [-46:41] [-23:31] [-23:21] [-44:48] [-62:122] [-29:164] [-28:37] [-31:35] [-35:42] [-21:43] [-52:87] [-22:40] [-48:22] [-20:50] [-32:245] [-31:41] [-57:24] [-33:84] [-20:47] [-24:46] [-21:170] [-41:21] [-39:81] [-85:20] [-43:22] [-28:68] [-125:59] [-62:32] [-127:64] [-42:117] [-85:29] [-24:41] [-81:25] [-48:25] [-65:32] [-79:61] [-71:33] [-19:27] [-29:54] [-31:24] [-81:21] [-24:19] [-22:21] [-32:66] [-217:65] [-20:38] [-57:24] [-134:27] [-39:23] [-76:36] [-61:42] [-27:23] [-27:26] [-81:25] [-23:34] [-93:37] [-42:24] [-36:41] [-83:24] [-23:82] [-29:18] [-25:24] [0:4294967296] [0:4294967296] [0:4294963200] [0:924808128] [0:421269184] [0:924811264] [0:3191769856] [0:2906158848] [0:4082706176] [0:4294967296] [0:2348796160] [0:537649152] [0:4294963200] [0:4294967296] [0:1097035648] [0:1349805440] [0:29555] [0:1701995648] [0:8000] [0:924800512] [0:3286756352] [0:3590279936] [0:4278219520] [0:3300199168] [0:18660876] [0:3914422016] [0:3771925760] [0:4106158080] [0:3758096384] [0:2784188672]
tree_sizes=7138 7228 7263 7232 7242 7241 7204 7251 7238 7256 7275 7269 7254 7241 7276 7268 7284 7273 7265 7270 7246 7285 7278 7291 7273 7284 7292 7315 7288 7302 7328 7287 7322 7311 7298 7348 7300 7299 7318 7345 7359 7310 7359 7349 7316 7298 7342 7303 7333 7313 7363 7297 7293 7367 7221 7329 7317 7357 7328 7298 7330 7312 7332 7346 7336 7304 7334 7323 7296 7276 7303 7331 7291 7266 7364 7282 7298 7281 7302 7258 7295 7269 7291 7282 7224 7346 7329 7356 7316 7346 7282 7332 7286 7287 7247 7246 7219 7257 7246 7342 7316 7311 7298 7235 7262 7271 7291 7326 7311 7266 7265 7344 7319 7347 7223 7208 7213 7306 7246 7243 7220 7228 7274 7248 7277 7304 7290 7232 7239 7260 7270 7243 7261 7213 7168 7183 7266 7210 7230 7286 7246 7199 7255 7205 7193 7251 7277 7298 7205 7197 7310 7321 7274 7236 7242 7197

Tree=0
num_leaves=64
num_cat=0
split_feature=626 626 884 592 878 1537 762 626 385 884 423 411 1215 554 691 626 588 2359 626 400 626 173 1174 637 233 805 2130 596 553 596 786 1398 486 368 626 63 797 831 370 164 218 893 86 390 605 346 496 2210 1962 2359 2210 596 1546 626 734 5 51 2377 734 1985 434 294 2376
split_gain=18233.9 10883.6 7914.7 3547.94 3305.82 3155.28 1993.46 1766.43 1541.52 1215.5 1086.48 941.215 827.498 827.352 761.976 728.715 801.938 672.12 640.343 648.346 630.375 620.012 586.289 761.84 576.407 489.613 475.022 470.996 452.293 449.117 429.337 513.185 422.382 397.322 387.202 369.615 362.851 340.755 331.209 326.48 316.175 311.578 308.056 291.568 290.92 289.772 287.302 286.559 277.608 273.258 328.256 263.786 244.867 244.416 241.943 239.44 232.756 293.551 224.726 240.921 213.309 213.175 179.336
threshold=1519847360.0000002 1505421824.0000002 -1.0000000180025095e-35 0.018743036314845089 -1.0000000180025095e-35 -1.0000000180025095e-35 3.1499561071395878 1518070592.0000002 0.00014827397535555067 -1.0000000180025095e-35 0.0086897946894168871 2.8685044526355344e-05 1.0000000180025095e-35 0.0091116814874112623 1.5000000000000002 1513310272.0000002 0.034056346863508231 7684.0000000000009 1327875072.0000002 0.0094343284144997614 1515487488.0000002 1.0000000180025095e-35 -1.0000000180025095e-35 -1.0000000180025095e-35 0.0048430850729346284 -273.99999999999994 -1.0000000180025095e-35 0.0021701814839616422 0.00074046652298420678 0.0029871755978092556 1.7952175736427309 1.0000000180025095e-35 0.0016220139223150911 0.004475377732887865 314845040.00000006 0.0038913384778425102 -739327.99999999988 158.50000000000003 0.023208230733871463 1.0000000180025095e-35 0.0015197793836705389 1.0000000180025095e-35 0.0035568733001127843 0.003324482357129455 0.0019120615324936809 1.3853277778252961e-05 0.00015657807671232152 -1.0000000180025095e-35 -1.0000000180025095e-35 53.000000000000007 -1.0000000180025095e-35 0.0023213681997731332 1.0000000180025095e-35 1149158656.0000002 -2575.9999999999995 0.003659158013761044 0.0087139904499053972 286.00000000000006 -98239.999999999985 1.0000000180025095e-35 0.0017925146967172625 5.3444722652784555e-05 176246.00000000003
decision_type=2 2 2 2 2 2 2 2 2 2 2 2 2 2 2 2 2 2 2 2 2 2 2 2 2 2 2 2 2 2 2 2 2 2 2 2 2 2 2 2 2 2 2 2 2 2 2 2 2 2 2 2 2 2 2 2 2 2 2 2 2 2 2
left_child=1 3 6 4 -1 11 17 15 9 -6 18 -3 24 14 25 16 42 -2 48 38 27 -15 58 -24 35 -10 -14 -17 -12 -8 -27 47 54 -13 -30 39 -28 44 -20 -11 -9 62 -7 -19 46 -38 -23 53 -5 50 -36 -25 -33 -32 -21 -42 57 -49 -22 -60 -41 -52 -16
right_child=2 5 -4 10 8 7 29 40 13 12 28 33 26 21 41 20 -18 43 19 32 22 37 23 51 -26 30 36 -29 34 -31 31 52 -34 -35 49 -37 45 -39 -40 60 55 -43 -44 -45 -46 -47 -48 56 -50 -51 61 -53 -54 -55 -56 -57 -58 -59 59 -61 -62 -63 -64
leaf_value=-0.85982489187447197 -0.85913159053702659 -1.1117447471212849 -0.96563481643142834 -1.037139375199809 -0.86824607038323742 -1.0247302504755493 -1.0704432691671886 -0.98104558270645503 -1.0769005242742911 -1.0301552472299536 -1.0925343980971005 -1.0745277299877449 -1.1119610606715409 -1.0562100312961691 -0.97474975605403269 -1.0412656071441073 -1.0362086306351883 -0.9123978076425836 -0.98589735563870895 -1.035182577111442 -1.0304163641548181 -1.0144135664922607 -1.0055346717974576 -1.0366651450548976 -0.96726741060024235 -0.98536718095365394 -1.0894331570988989 -1.0877410513450709 -0.97793188201839809 -0.89520010342938694 -0.98465543413644097 -1.0095155677758609 -1.0098072455570146 -1.0271176372433206 -1.0691520928322642 -0.99613372489041918 -0.98742693391862157 -1.0412386036126546 -1.0836588635564157 -0.97815923973295427 -1.048305726929623 -1.0099654851008915 -0.98849617052143834 -1.0793757313197943 -0.97947441728479523 -1.0313907822010278 -0.9826945066422631 -1.0067020410176477 -0.98692326075588266 -0.99575690675277884 -1.0336652554202224 -1.0774513662013361 -1.0632111791710559 -1.061828909810856 -1.0843394225241147 -0.99245539472362443 -0.98986250864952507 -1.041186088172704 -0.98020632053944479 -1.071721769773001 -0.99369751200285972 -0.99703488831632858 -0.99640928857326161
leaf_weight=509.62532892823219 2377.40655580163 1299.1171245276928 39010.290238171816 292.6832349896431 238.51513332128525 862.45265436172485 152.57757118344307 2299.2184548676014 259.42798474431038 326.29373493790627 278.14476710557938 1151.4871597290039 113.88827475905418 308.90098506212234 3212.7996974289417 1008.7136133313179 3571.7074378430843 57.657195776700974 1818.4259643554688 1644.1397060751915 573.11884233355522 1338.6615627408028 780.26605290174484 580.21052479743958 7369.6711854934692 1871.4349337816238 124.0996889770031 1186.2082353830338 371.9813306927681 48.082642078399658 135.94358375668526 313.01275366544724 1972.801283210516 717.14080730080605 600.08270946145058 4485.1033755540848 1216.6212678849697 259.98228508234024 90.971752136945724 20989.299739956856 353.72934222221375 1184.618312895298 1833.9099609553814 47.831525087356567 10202.54265460372 541.68086388707161 1529.6572756171227 7144.6086658835411 4613.7039397358894 499.66539856791496 3413.5738451778889 1251.5544856488705 660.0254807472229 418.2504309117794 295.2666557431221 419.47917860746384 1827.8103887140751 675.49324291944504 717.8923299908638 79.922525107860565 2468.4964126050472 449.48555541038513 1360.3113839626312
leaf_count=942 4373 6658 125794 1216 467 3444 700 7875 1212 1326 1356 5344 584 1360 10741 4245 14796 146 6343 6789 2331 5166 2921 2407 23921 6515 600 5709 1259 111 472 1188 7495 2886 2743 16242 4268 1094 433 71102 1521 4503 6459 225 34736 2210 5272 26855 16155 1807 14028 5856 2966 1872 1408 1499 6470 2842 2451 368 8861 1633 4931
internal_value=-0.987937 -0.998945 -0.959921 -0.991543 -0.986713 -1.03358 -0.876862 -1.0243 -0.98763 -0.980763 -1.01255 -1.07906 -0.981476 -0.995582 -1.00231 -1.03268 -1.02067 -0.864611 -1.00323 -1.01444 -1.04487 -0.98618 -1.03301 -1.04691 -0.979721 -1.00888 -1.0128 -1.06638 -1.03037 -1.02845 -1.00753 -1.01124 -1.0261 -1.05633 -1.02713 -0.982968 -1.0068 -0.984557 -0.990555 -0.980485 -0.990347 -0.987112 -1.00009 -0.98811 -0.98343 -1.00097 -0.997498 -1.00793 -0.989919 -1.03082 -1.03475 -1.06453 -1.04594 -1.0429 -1.04267 -1.01801 -1.00593 -1.00968 -1.00653 -0.989374 -0.979794 -1.0294 -0.981193
internal_weight=147808 106114 41693.8 87427.7 71086.8 18686.1 2683.56 15518.4 70577.2 37873.7 16340.9 3167.75 37635.2 32703.5 19063.7 12446 6268.07 2482.9 10728 5821.61 6177.89 13639.7 3982.96 2612.03 35638.9 13306 1996.29 2194.92 5612.93 200.66 13046.6 11175.1 3912.21 1868.63 5334.79 28269.2 1882.4 13330.8 1909.4 23784.1 3072.43 5757.73 2696.36 105.489 13070.9 1758.3 2868.32 10202.1 4906.39 4962.81 4463.14 1831.77 973.038 554.194 1939.41 773.209 9647.91 7820.1 1370.93 797.815 23457.8 3863.06 4573.11
internal_count=519502 388153 131349 311383 248718 76770 5555 61882 247776 129581 62665 14888 129114 118195 70567 50987 24699 4744 39839 22468 26288 47628 16334 11184 121452 50392 7662 9954 22826 811 49180 42665 15692 8230 21470 97531 7078 46268 6776 81289 10895 20175 9903 371 45174 6478 10438 38511 17371 20211 18404 8263 4154 2344 8197 3020 36167 29697 5150 2819 79963 15661 15672
is_linear=0
shrinkage=1


Tree=1
num_leaves=64
num_cat=0
split_feature=626 626 884 407 1537 878 626 626 523 762 884 371 616 89 1258 626 368 626 1199 2359 233 2359 89 512 654 1847 116 626 1537 495 608 679 1616 771 622 320 626 727 654 758 755 108 218 116 104 66 66 2380 692 543 32 225 76 640 66 15 332 5 505 727 786 204 1252
split_gain=14911.9 9234.4 6069.2 3659.46 2827.75 2318.34 1622.86 1514.79 1513.86 1510.05 988.206 925.381 920.732 810.611 646.34 640.92 670.439 566.476 524.531 513.059 509.235 499.967 418.381 414.866 415.395 414.347 466.001 387.543 377.182 364.133 348.97 346.444 336.433 335.45 333.528 360.596 331.115 431.397 318.129 299.388 298.055 272.418 263.824 261.213 260.368 250.329 274.634 247.471 231.801 230.048 228.15 226.721 223.142 341.306 223.333 218.26 211.91 206.543 205.139 203.742 286.442 193.608 187.597
threshold=1519847360.0000002 1505421824.0000002 -1.0000000180025095e-35 0.0012349270400591197 -1.0000000180025095e-35 -1.0000000180025095e-35 1428076096.0000002 1518070592.0000002 1.0000000180025095e-35 3.1499561071395878 -1.0000000180025095e-35 6.1051192460581674e-05 2124684.0000000005 0.0017795774037949743 1.0000000180025095e-35 1513310272.0000002 0.022218619473278526 1515487488.0000002 -1.0000000180025095e-35 15492.000000000002 0.0048430850729346284 9540.0000000000018 0.0030160694150254135 4.5000000000000009 1.0000000180025095e-35 -1.0000000180025095e-35 0.0064204595983028421 1674528192.0000002 -1.0000000180025095e-35 0.00040773945511318749 0.00096242118161171686 13.500000000000002 1.0000000180025095e-35 -7.8308911323547354 1.0000000180025095e-35 0.16004356741905215 1514597312.0000002 1079296.0000000002 1.0000000180025095e-35 -6.3702721595764151 -1.0000000180025095e-35 0.0083291139453649538 0.0015197793836705389 0.0084929605945944803 0.0080252429470419901 0.0067573033738881358 0.0059829922392964372 8222.0000000000018 1.5000000000000002 0.0038426715182140474 0.010941890999674799 0.00069701005122624349 0.0027743389364331965 1.0000000180025095e-35 0.0054155106190592059 0.0048580688890069732 5.1505048759281642e-05 0.0036719578783959155 0.054851267486810691 1.0000000180025095e-35 5.0316433906555185 0.0028775534592568879 -1.4999999999999998
decision_type=2 2 2 2 2 2 2 2 2 2 2 2 2 2 2 2 2 2 2 2 2 2 2 2 2 2 2 2 2 2 2 2 2 2 2 2 2 2 2 2 2 2 2 2 2 2 2 2 2 2 2 2 2 2 2 2 2 2 2 2 2 2 2
left_child=1 3 9 5 11 -1 12 15 38 21 -7 61 13 18 20 16 22 36 48 32 23 -2 -6 -12 34 -19 33 50 -14 -10 -15 40 -16 -27 -25 55 -17 -38 49 -13 -20 -26 -9 -23 -30 46 51 -40 -5 -8 -11 -31 53 -42 -54 -36 -24 -44 -53 60 -28 -3 -57
right_child=2 4 -4 6 7 10 8 42 29 27 14 39 28 30 19 17 -18 25 31 -21 -22 43 56 24 41 26 59 -29 44 45 -32 -33 -34 -35 35 -37 37 -39 47 -41 52 -43 57 -45 -46 -47 -48 -49 -50 -51 -52 58 54 -55 -56 62 -58 -59 -60 -61 -62 -63 -64
leaf_value=0.16678673957007112 0.16652733630188155 -0.058611344463053841 0.077641133855830935 -0.015198574155469231 0.023741537387645659 0.16020227815726407 0.035429972733555679 0.064040756219522987 0.013764062369715502 0.15150913334953484 0.013489428851115277 -0.021294865136131484 -0.015271148916369015 0.050769054838980178 0.054599198537253306 0.0092892588030776269 0.011981713542042423 0.060728054009733107 -0.034937388522101757 -0.044686630585923308 0.075525113596773233 0.12735762433772047 0.042191932832411919 0.073387164639223443 0.044094111445123117 0.081742260283967361 0.03506591159482244 -0.034081312253664217 0.047256795930932488 0.025065474229962015 0.066625379508388372 0.069277244879487151 -0.00066616809880715828 -0.017740228878427876 0.062884964558277093 -0.028717854062483214 -0.038359451135246726 0.074850235775047499 -0.047279374981459177 0.023454236142889998 0.061804923073742225 -0.018799650153502209 0.0026400262875679271 -0.038600862720230417 0.018789568737831958 0.058310745563233263 0.0056116614070564888 0.054842481178696001 0.048770609636332361 -0.042787168439323661 -0.058433469209792026 0.044980409617795182 0.040765031253324278 0.038640771155385618 0.010129481621065854 0.020204288884084584 0.076653459836113547 0.05411874802254954 -0.030193918906375905 0.088692008639273276 -0.0051223390763164792 0.0031725403817954301 0.054133941206740616
leaf_weight=548.65527361631393 2601.811170950532 1490.4518941193819 40586.278756558895 515.39812541007996 1377.7146611809731 262.00427085161209 318.56499375402927 2375.5164917111397 1682.4882140755653 62.199542567133904 444.96124102175236 746.21182951331139 459.91408312320709 5229.9961237311363 1268.2508816421032 854.72339817881584 3190.4674915075302 471.56884659826756 120.24273644387722 187.87684735655785 7887.2191590815783 50.80332188308239 844.50623378157616 6333.9460264146328 846.58835563063622 90.522195011377335 1346.6220281720161 124.1648170799017 1619.8768610954285 2285.8716562986374 10310.939403817058 1473.6384007185698 351.75937478244305 1325.9482981264591 23045.009547904134 112.42012245953083 1233.2354423105717 90.311503648757935 785.81841284036636 748.87811700999737 3078.550610050559 216.12518101930618 358.60147655010223 44.460008233785629 1593.242939800024 1425.0456117838621 697.58658869564533 64.167596653103828 195.27166905999184 133.35884666442871 16.340405955910683 5521.7619888335466 2749.1485677957535 3289.2022455632687 759.17788246273994 460.63504488766193 945.5556213259697 426.69102716445923 92.267047390341759 120.80537593364716 661.0300804823637 138.58842924237251 3524.1598723679781
leaf_count=928 4408 7818 125794 2302 5455 481 1218 7875 6882 133 1807 3486 2061 18409 4401 3621 13151 1604 584 924 24738 121 3084 20248 3048 285 5108 594 5787 8914 33987 4814 1493 6082 76970 518 6032 301 3912 2978 10371 981 1538 215 6431 4875 2920 230 696 653 84 19972 10077 12179 3126 1821 3009 1482 438 362 2893 606 12187
internal_value=0.057888 0.0479909 0.082634 0.0546614 0.0161604 0.0646284 0.0444502 0.0247981 0.0295993 0.152516 0.0633812 -0.0272856 0.050603 0.0537198 0.0628134 0.0170082 0.0281599 0.00556222 0.0440622 0.0335284 0.0640484 0.162408 0.0444541 0.0614609 0.0620789 0.016697 0.0108397 0.0209037 0.0270793 0.0352882 0.0612892 0.0466449 0.0425992 -0.0113826 0.0630559 0.060645 -0.0149691 -0.0306346 -0.0215477 0.00111959 0.0433084 0.0313033 0.0557353 0.0499037 0.0331412 0.0389015 0.0356844 -0.0395699 0.00237832 0.0123488 0.10783 0.0383399 0.0442611 0.0498397 0.0341357 0.0610166 0.0603954 0.0306111 0.0437449 0.0256284 0.0218337 -0.0533552 0.0502117
internal_weight=152215 108729 43486.1 89891.1 18838 45489.6 44401.5 15713.8 13006.9 2899.78 44941 3124.13 31394.6 27721.6 44679 12553 6358.24 6194.77 12180.6 1807.89 42871.1 2697.07 3167.78 34983.8 34538.9 4016.5 3544.93 202.705 3673.03 11705 15540.9 11470 1620.01 1416.47 33476.2 27142.2 2178.27 1323.55 1301.91 1495.09 9996.32 1062.71 3160.81 95.2633 3213.12 10022.5 8597.49 849.986 710.67 451.924 78.5399 7899.9 9876.08 6367.75 3508.33 27029.8 1790.06 785.293 5614.03 2128.46 2007.65 1629.04 3984.79
internal_count=519502 388153 131349 311383 76770 150545 160838 61882 50014 5555 149617 14888 110824 96545 149136 50987 24699 26288 44149 6818 142318 4744 11548 117580 115773 16334 14730 811 14279 44001 52396 41151 5894 6367 111744 91496 9954 6333 6013 6464 36337 4029 10895 336 12218 37119 32244 4142 2998 1871 217 29324 35753 22550 13203 90978 6093 3020 20410 8363 8001 8424 14008
is_linear=0
shrinkage=0.05


Tree=2
num_leaves=64
num_cat=0
split_feature=626 626 884 407 1537 626 480 626 72 414 685 884 825 133 89 601 1258 2210 2210 2359 2359 512 63 466 986 786 679 256 680 685 809 874 1750 236 321 810 1616 141 637 526 482 182 748 77 615 513 17 825 812 1940 784 218 385 748 243 622 463 580 520 684 884 611 422
split_gain=12412.5 7895.05 4897.15 3096.8 2526.79 1407.82 1352.11 1341.4 1192.94 844.831 838.809 773.391 606.942 651.43 601.532 600.499 590.506 560.201 547.757 492.377 451.715 443.864 450.005 431.431 419.677 386.334 381.463 341.891 339.775 336.949 555.907 586.296 330.193 311.102 300.952 300.24 291.699 283.633 282.774 271.297 257.712 291.996 288.888 249.384 245.662 242.652 238.768 227.24 226.11 237.56 224.842 222.489 219.578 214.261 212.211 206.36 191.892 189.965 182.345 178.846 177.243 176.604 175.873
threshold=1519847360.0000002 1506534592.0000002 -1.0000000180025095e-35 0.0012349270400591197 -1.0000000180025095e-35 1428076096.0000002 0.0005331080174073578 1518070592.0000002 0.01983803324401379 3.0341081583173949e-05 419584.00000000006 -1.0000000180025095e-35 -11401.999999999998 0.0067317206412553796 0.0012492210953496399 0.0086491066031157988 1.0000000180025095e-35 -1.0000000180025095e-35 -1.0000000180025095e-35 7684.0000000000009 15564.000000000002 4.5000000000000009 0.0038792982231825594 0.005386598641052843 1.0000000180025095e-35 4.429793357849122 13.500000000000002 0.023464124649763111 1.0000000180025095e-35 38016.000000000007 3658.5000000000005 -1.0000000180025095e-35 1.0000000180025095e-35 0.00020700083405245098 0.00020557949756039309 -537.99999999999989 1.0000000180025095e-35 1.0000000180025095e-35 -1.0000000180025095e-35 0.0017658707802183928 0.010140025522559883 0.0033794005867093806 -1.0000000180025095e-35 0.0040283850394189366 9.5000000000000018 12.830635070800783 0.0036519577261060481 -24573.999999999996 -1.0000000180025095e-35 1.0000000180025095e-35 -6.4572167396545401 0.0015197793836705389 0.0001622141862753779 1.0000000180025095e-35 0.0015242642839439215 1.0000000180025095e-35 0.0028619657969102268 0.040675936266779907 1.0000000180025095e-35 1.0000000180025095e-35 -1.0000000180025095e-35 5.60174584388733 0.00065721335704438399
decision_type=2 2 2 2 2 2 2 2 2 2 2 2 2 2 2 2 2 2 2 2 2 2 2 2 2 2 2 2 2 2 2 2 2 2 2 2 2 2 2 2 2 2 2 2 2 2 2 2 2 2 2 2 2 2 2 2 2 2 2 2 2 2 2
left_child=1 3 8 11 9 10 17 12 19 -3 14 -1 13 27 26 35 18 33 58 -2 36 59 24 32 34 -19 48 50 -11 30 -26 -32 56 -7 55 -14 -18 -36 -10 47 41 42 -8 -43 -37 -21 57 52 -5 -50 -6 -9 -16 -41 -42 -23 -12 -17 -13 -20 -28 -44 -45
right_child=2 4 -4 5 7 6 40 51 38 28 23 16 15 -15 39 46 20 25 21 45 -22 22 -24 -25 29 -27 60 -29 -30 -31 31 -33 -34 -35 37 44 -38 -39 -40 53 54 43 61 62 -46 -47 -48 -49 49 -51 -52 -53 -54 -55 -56 -57 -58 -59 -60 -61 -62 -63 -64
leaf_value=0.14257348150946533 0.14842230517818961 -0.059096132175569444 0.071257090231021142 -0.03215414060556606 0.058420473167665216 -0.052829988633010132 0.027124215366499223 0.059096602558319389 0.16256280228882347 0.027197417889644887 0.047313541236763339 -0.050373981088633869 0.070808975263824639 0.010432951156526177 0.066252754042367676 -0.031521976152619473 0.050355433705746515 0.034656281700200901 0.028354425042723931 0.11997715511513983 -0.043766599961957309 0.068079046440094229 0.048616378578321989 0.04457339245327388 0.050624590660818571 -0.024487099676584502 -0.064355126598822671 0.0026613872971320679 -0.019539727939656741 0.068237244249507834 0.065622708700065091 0.14961062682820861 -0.017988170316918937 -0.0034575686856619125 -0.031399424471788333 0.018712470004213933 -0.00085785009799668245 0.045868470225429885 -0.021796379219411705 0.062165253933737313 0.033073223460587123 0.052758334098573847 0.028097911929347654 -0.057940167286183931 -0.018339141031473487 -0.021122235662740466 0.0099927311433298319 0.054074694491184849 0.038419369200841116 9.0711539697191291e-06 0.019733770301127742 0.028663273698587961 0.026566942197748151 -0.041329051346939705 0.057763990186474948 0.058350311544901279 0.017127019476354376 0.011836553894673016 0.035674091336121282 -0.046921092504070505 0.067092677045075919 0.060433136938322266 0.0054117531873357329
leaf_weight=278.97317786514759 2781.8721377104521 1215.1362559646368 41973.319782361388 124.41004268825054 1999.4558491110802 639.69132216274738 4013.8089974224567 2443.6885043084621 24.432695388793945 557.80664578080177 710.67438839375973 143.30242000520229 243.58336600661278 2895.2198607623577 442.7673621326685 1476.3620583564043 1311.8167543709278 975.32094448804855 367.67158511281013 58.016980215907097 180.54031883180141 7878.0419173389673 6167.1147352010012 2836.9044955223799 463.77472460269928 385.15321692824364 26.179824024438858 426.44333152472973 1284.0208745747805 9155.8285325169563 332.08528037369251 555.15700556337833 535.07798279821873 636.56045177578926 127.37200978398323 3180.0020945817232 352.82361303269863 1758.2063835561275 139.86678974330425 9630.8367692828178 1583.3066293746233 258.18143604695797 610.51400949060917 124.29794138669968 520.60593128204346 64.173793777823448 721.45721454918385 6288.6300291419029 6113.3950943499804 430.92322818934917 462.43624824285507 796.22795486450195 1637.8765897899866 50.270237371325493 1932.2892160713673 17690.468644246459 2031.0916596800089 304.76537561416626 107.94397048652172 100.46780021488667 1255.2304022461176 1369.4835897684097 923.45131352543831
leaf_count=483 4445 6610 125794 609 6643 3297 15167 7875 43 2163 2453 719 764 11889 1401 7089 4448 3676 1404 128 909 24265 20929 9872 1549 1767 127 1818 6023 28149 1041 877 2408 2790 587 12715 1499 6033 645 30809 5841 883 2301 640 2405 294 2994 20980 21936 1815 1845 3020 6172 229 6391 57392 8092 1254 395 485 3921 4498 3807
internal_value=0.053575 0.0445965 0.0757147 0.0505614 0.0148035 0.0412747 0.0276954 0.0230117 0.136692 -0.0267351 0.0469627 0.0595703 0.0154338 0.0271935 0.0508812 0.00488383 0.0590744 -0.0044093 0.0602149 0.144107 0.0313535 0.0606296 0.0611434 0.0302983 0.0631786 0.0179127 0.0394217 0.0439941 -0.00538515 0.0716768 0.0949863 0.118175 0.0179398 -0.0282043 0.0599263 0.0170393 0.0395007 0.040649 0.00561936 0.0559284 0.0355224 0.0301661 0.0348339 0.00874232 0.0135 0.0458727 -0.0142737 0.0493357 0.0346208 0.0358902 0.0511537 0.0516174 0.0350122 0.0616278 0.0466441 0.0613479 0.0249515 -0.024103 -0.0134048 0.0121995 0.0644071 0.0504629 -0.00210389
internal_weight=156107 111065 45041.7 92537.9 18527.2 45566.3 13452.1 15470.2 3068.36 3056.96 32114.3 46971.6 12230.3 5783.56 26000.5 6446.78 46692.6 2636.73 44847.4 2904.06 1845.18 44596.2 44128 6113.75 37960.9 1360.47 7950.14 2888.34 1841.83 10506.8 1351.02 887.242 3276.84 1276.25 27454.1 3944.19 1664.64 1885.58 164.299 18050.4 10815.3 7299.74 5993.81 1305.93 3700.61 122.191 2502.58 8369.27 6668.73 6544.32 2461.89 3239.92 2080.64 9681.11 3515.6 25568.5 2741.77 1781.13 251.246 468.139 1281.41 1980 1047.75
internal_count=519502 388153 131349 313046 75107 161882 51058 60311 5555 14796 110824 151164 49416 22195 87999 27221 150681 11530 143825 4867 6856 142711 140822 22825 119893 5443 28408 10306 8186 31616 3467 1918 12953 6087 88277 15884 5947 6620 688 59591 39528 27296 21966 5330 15120 422 11337 28553 24360 23751 8488 10895 7573 31038 12232 81657 10545 8343 1114 1889 4048 6799 4447
is_linear=0
shrinkage=0.05


Tree=3
num_leaves=64
num_cat=0
split_feature=626 626 407 968 846 626 878 626 975 680 371 626 616 32 89 480 2359 236 1258 2210 680 2359 810 626 1463 626 89 412 233 2355 141 526 569 1199 786 2356 822 762 626 825 968 169 825 438 685 572 204 717 73 405 19 435 218 743 5 63 754 271 414 2359 572 626 2083
split_gain=10483.1 6795.9 2609.32 2183.46 1988.66 2049.41 1582.03 1210.72 1206.62 1032.68 889.84 866.639 677.242 629.658 628.854 582.329 517.811 494.138 472.31 464.702 426.778 410.562 410.189 394.514 682.458 368.357 352.866 330.088 323.751 336.171 559.168 317.941 315.992 310.819 304.707 301.863 285.446 285.016 280.5 280.288 276.371 276.029 271.069 253.907 240.936 229.45 221.876 221.403 209.852 198.529 198.08 197.584 192.904 184.715 181.46 181.21 222.966 235.364 179.779 179.397 213.919 175.447 172.348
threshold=1519847360.0000002 1505421824.0000002 0.0012349270400591197 1.0000000180025095e-35 -1.0000000180025095e-35 1540641024.0000002 -1.0000000180025095e-35 1518070592.0000002 1.0000000180025095e-35 3.5000000000000004 6.6593449446372701e-05 1196209664.0000002 2066472.0000000002 0.0064297171775251636 0.0011095411027781667 0.0005331080174073578 4572.0000000000009 0.0083291833288967627 1.0000000180025095e-35 -1.0000000180025095e-35 10.500000000000002 15564.000000000002 -537.99999999999989 1514287424.0000002 -1.0000000180025095e-35 1454526656.0000002 0.0035423213848844175 0.00024623748322483158 0.0048430850729346284 794.00000000000011 1.0000000180025095e-35 0.0017658707802183928 0.0012548035592772069 -1.0000000180025095e-35 7.8718667030334482 8256.0000000000018 274.00000000000006 -1.0000000180025095e-35 1515487488.0000002 -136707.99999999997 1.0000000180025095e-35 2.4652218598930634e-05 -16345.999999999998 0.014044502750039102 3088.0000000000005 0.0057771261781454095 0.0027915791142731909 -15871.999999999998 0.0018503313185647132 0.00067015504464507114 0.0031129017006605868 0.016074464656412605 0.0015197793836705389 7.5206243991851816 0.0036719578783959155 0.0038792982231825594 -0.050966274924576276 4.2506469810632558e-07 0.00038024090463295584 7684.0000000000009 0.0015864286106079819 1674528192.0000002 -1.0000000180025095e-35
decision_type=2 2 2 2 2 2 2 2 2 2 2 2 2 2 2 2 2 2 2 2 2 2 2 2 2 2 2 2 2 2 2 2 2 2 2 2 2 2 2 2 2 2 2 2 2 2 2 2 2 2 2 2 2 2 2 2 2 2 2 2 2 2 2
left_child=1 2 6 7 -2 -6 -1 16 12 59 46 -10 14 61 20 32 22 34 19 -8 33 41 -3 26 -25 31 -24 39 29 -21 35 42 -13 -4 -18 -31 -22 -35 -26 -27 -14 -20 58 -12 -34 -40 -5 -33 -39 -42 -17 -29 -9 -49 -54 56 57 -32 -16 -7 -61 -11 -58
right_child=4 3 8 10 5 9 18 52 11 13 43 15 40 -15 25 50 17 -19 21 28 36 -23 23 24 38 27 -28 51 -30 30 55 47 44 37 -36 -37 -38 48 45 -41 49 -43 -44 -45 -46 -47 -48 53 -50 -51 -52 -53 54 -55 -56 -57 62 -59 -60 60 -62 -63 -64
leaf_value=0.13528254869016995 0.065388721517914458 0.052647245881628092 -0.004603550103911838 -0.058301832373175981 0.06711949489750306 0.13603499118757204 -0.013508843812357016 0.055605653107644405 0.060205029007873306 0.13539061779584236 0.021055152880916139 -0.04619543950283584 0.036052064219788051 0.0087942795834030155 0.044307287357646247 0.0059068603727126965 0.024849120963483028 0.061969835248975161 -0.036220882107257442 0.063090579016615286 0.060835033853117698 -0.043218446777816999 0.0089689570536877605 0.045475304218508601 -0.03738121934051248 0.0014398220934981952 0.047177020112996619 0.050265085014925263 0.064468858625857453 -0.025545345672163169 0.047369266366340423 -0.063837960104098784 -0.044892619299105319 -0.02626191054633964 -0.03047065678245402 0.056926190517985233 0.026888044562572978 0.04259671392481848 0.0076101985826792758 0.037822630592022545 -0.039649037185245803 0.042686825801370655 0.05054353238895657 -0.019357779288082657 0.0065275654617787116 -0.025245254672086832 -0.0049169724558994106 0.057840336305224033 0.021919969443545836 0.015979526848988384 0.037732963398794589 0.01775316264904012 0.0012654879706474921 -0.0092824446479719824 0.048848529098821022 0.043990194153119756 0.031250638307961418 0.13053503210997841 0.021593647448107448 -0.040280762318464253 0.12423359820961739 0.066334481764130551 0.054280612872061068
leaf_weight=609.50034445524216 39317.430056244135 480.4999964684248 780.9603409320116 1335.0320763289928 3516.4424121081829 2806.6971414089203 244.61143155395985 2504.2981632053852 983.6942071467638 223.76946160197258 859.66125559806824 433.28948278725147 2370.2972959429026 286.08435267210007 1784.7107196897268 720.54517444968224 2932.3576537817717 906.26479196548462 119.26397253572941 7418.0815025269985 1741.5927206426859 175.64962223172188 3568.2515823096037 536.2440533041954 1003.3531254827976 980.73832935094833 727.48165616393089 3280.362607434392 8372.5049125105143 360.55255571007729 151.98655878007412 37.907629773020744 257.99855916202068 221.26966790854931 272.01124939322472 160.27551706135273 960.90288886427879 2338.6043276190758 1330.2329457551241 1150.1792033910751 172.90685430169106 1567.1811263859272 6408.7494435012341 709.38730466365814 1946.9532541930676 884.86696876585484 227.84918931126595 10865.489971250296 2581.9343370199203 2215.0113835781813 1520.692611426115 544.94301569461823 362.87546347081661 103.47074241936207 447.39257514476776 5557.191328138113 843.2592498511076 193.23197957873344 1701.9472049325705 31.828070282936096 52.113156244158745 156.16889980435371 22185.086433336139
leaf_count=928 114680 1596 3318 7457 10163 4301 1095 7861 3118 364 3356 2231 8357 1127 6025 2866 11303 2800 555 22396 5424 906 14618 1848 5013 4108 2482 10853 24720 1638 493 195 1289 1055 1300 510 3501 8033 5506 4049 834 5361 20920 3366 8080 4210 1022 33930 9641 8764 5356 2074 1533 425 1499 18562 2977 326 6392 157 109 448 70078
internal_value=0.0497628 0.0415562 0.0470762 0.0143547 0.0697796 0.094187 0.0552413 0.0218468 0.0385828 0.120948 -0.023815 0.0173917 0.0416703 0.06482 0.0440455 0.00876057 0.0147944 0.0293724 0.054211 0.0552214 0.0322997 0.0295296 0.00776994 0.00509139 -0.00674783 0.0478176 0.0154395 0.0368484 0.055593 0.0535774 0.0511813 0.0509433 -0.00715983 0.0247868 0.0201532 -0.000166207 0.0487648 0.0292508 -0.015449 0.0210777 0.0239572 0.0371065 0.0444396 0.00278394 0.000510956 -0.00551458 -0.050519 0.0567903 0.0317471 0.0119515 0.0275011 0.0456335 0.0487445 0.0572072 0.0275386 0.0521057 0.0540352 0.0939203 0.03322 0.133881 0.0618545 0.107006 0.0534373
internal_weight=159542 113152 94063.5 19088.1 46390.5 7073.1 47958.4 15956.1 46105.2 3556.66 3131.93 5863.17 40242 666.023 35483.8 4879.48 12641.6 4110.63 47348.9 45486.8 8625.26 1862.09 8530.93 8050.43 3754.7 26858.5 4295.73 5956.22 45242.2 36869.7 29451.6 20902.3 2638.24 5922.77 3204.37 520.828 2702.5 5141.81 3218.45 2130.92 4758.22 1686.45 9895.41 1569.05 2204.95 2215.1 1562.88 11006.9 4920.54 2387.92 2241.24 3825.31 3314.57 10969 810.268 28930.8 23373.6 345.219 3486.66 2890.64 83.9412 379.938 23028.3
internal_count=519502 388153 311383 76770 131349 16669 150545 61569 160838 6506 15201 22940 137898 1939 119943 19822 50676 15403 149617 142795 30972 6822 35273 33677 16577 88971 17100 21084 141700 116980 94584 67887 11600 22047 12603 2148 8925 18729 14729 8157 17955 5916 33337 6722 9369 9716 8479 34550 17674 9598 8222 12927 10893 34355 3032 92436 73874 819 12417 4567 266 812 73055
is_linear=0
shrinkage=0.05


Tree=4
num_leaves=64
num_cat=0
split_feature=626 626 884 1537 592 878 626 369 762 414 748 884 141 554 57 92 46 269 622 2130 805 760 236 580 2167 544 626 626 680 2359 1199 626 626 637 1936 2359 497 1281 447 406 190 691 1572 77 2047 831 557 116 680 256 725 837 680 511 837 511 1844 622 51 2141 220 596 748
split_gain=8960.5 5888.34 3539.18 2051.3 1960.34 1521.3 1015.16 896.746 881.497 763.188 623.307 619.149 533.48 638.232 529.884 464.649 464.035 404.445 428.267 408.645 384.071 352.008 344.424 314.117 303.566 371.852 373.293 291.304 279.69 278.769 278.622 269.843 260.354 248.767 319.957 241.028 239.527 289.716 239.13 234.614 220.578 214.405 209.858 206.445 200.746 197.845 194.829 181.388 165.456 190.248 165.092 180.577 163.116 213.785 163.051 162.722 154.712 154.357 167.934 157.13 147.531 146.503 144.777
threshold=1519847360.0000002 1506534592.0000002 -1.0000000180025095e-35 -1.0000000180025095e-35 0.018743036314845089 -1.0000000180025095e-35 1518070592.0000002 0.00017866479902295398 3.1499561071395878 3.0341081583173949e-05 -1.0000000180025095e-35 -1.0000000180025095e-35 1.0000000180025095e-35 0.0091116814874112623 0.00098960072500631235 0.0021639153128489856 0.0010800833115354183 6.958052267691529e-07 1.0000000180025095e-35 -1.0000000180025095e-35 -23.999999999999996 -4.3711159229278556 0.0083291833288967627 0.048445463180541999 1.0000000180025095e-35 0.0040015624836087236 1513310272.0000002 1674528192.0000002 1.0000000180025095e-35 9540.0000000000018 -1.0000000180025095e-35 1347524672.0000002 697386432.00000012 -1.0000000180025095e-35 -1.0000000180025095e-35 6332.0000000000009 0.00012047847849316896 2.5000000000000004 0.0051353122107684621 0.0228286711499095 3.7598871131194762e-05 1.5000000000000002 -1.0000000180025095e-35 0.0073414891958236703 1.0000000180025095e-35 76.500000000000014 0.0067609301768243322 0.0084929605945944803 10.500000000000002 0.32602752745151525 -6543.9999999999991 1.0000000180025095e-35 11.500000000000002 0.0028083090437576179 18448.500000000004 0.062092855572700507 1.5000000000000002 1.0000000180025095e-35 0.0087139904499053972 -1.0000000180025095e-35 0.0033594014821574096 0.0014655817067250612 -1.5858972072601316
decision_type=2 2 2 2 2 2 2 2 2 2 2 2 2 2 2 2 2 2 2 2 2 2 2 2 2 2 2 2 2 2 2 2 2 2 2 2 2 2 2 2 2 2 2 2 2 2 2 2 2 2 2 2 2 2 2 2 2 2 2 2 2 2 2
left_child=1 4 8 9 5 -1 16 11 29 60 14 -7 -9 20 31 32 22 18 61 56 -14 -18 -5 41 25 -23 -27 -10 -11 -2 -12 -6 -16 -28 -35 62 37 48 -17 -32 -33 57 44 -25 -38 52 -8 -31 49 -21 -43 -52 53 -15 55 -44 -20 -22 59 -59 -3 -13 -34
right_child=2 3 -4 6 10 7 46 12 27 28 30 17 13 45 15 38 21 -19 19 36 23 24 -24 43 -26 26 33 -29 -30 47 39 40 35 34 -36 -37 42 -39 -40 -41 -42 50 54 -45 -46 -47 -48 -49 -50 -51 51 -53 -54 -55 -56 -57 -58 58 -60 -61 -62 -63 -64
leaf_value=0.12417247903439749 0.12411810194104572 -0.060224236587221924 0.06089766810668075 0.01649014532883351 0.030960750853381819 0.12085394531777126 0.049175429995276555 -0.024247740919456483 0.085990636983091909 0.024121342241278432 0.005405024716613336 0.04609337100646619 -0.022522490659113336 0.038201653929196527 0.050765806288927719 0.049778313554146539 0.053994386651329045 0.060958799795044122 0.026667884402635185 0.02088619788585391 0.050850258360708112 0.01987483457995573 0.057234456674770673 0.024579059128838471 0.03710366948661141 0.010967329378551344 0.018838897933765444 -0.033872415438977253 -0.01807162837027446 0.098117105858543385 0.048758193584479859 -0.046419512187281124 0.017092139394954856 0.052577149676895855 -0.02333797130175461 0.041517484526918731 0.055061775197349484 -0.045705984712920013 0.0018383778668740174 0.021727814128790116 -0.0016009640001225589 0.03689612981505818 0.050222712917770411 -0.017516401199266649 0.0037744867845441593 0.0049183412462395848 0.012675853164850124 -0.037422776447269539 0.054247126374602328 0.053786569303109516 0.057012108167635078 -0.017940479836433449 0.059162360575804533 0.053503322460952012 -0.029391403347176583 0.037688284568873659 -0.059242308182098725 0.0055386004028837648 0.04393994489977851 0.030819631905936531 0.043492007253069814 0.061735670889456765 -0.0025009520725914631
leaf_weight=636.38534511625767 2984.0020902007818 1106.3973039984703 44264.056156530976 1128.2267277538776 455.53229610621929 315.47151547670364 2957.715141788125 318.27568072080612 86.016597926616669 570.59526406228542 499.45670142769814 1929.6959770172834 286.55900810658932 4148.0081097781658 608.87261018157005 2321.9664406627417 423.78813718259335 7761.8970823585987 90.401745870709419 1748.3177697658539 1231.2710935622454 2837.2020865082741 960.0367706567049 1308.9300113320351 794.0588199198246 2949.0284371376038 503.18874058127403 123.42085207998753 1260.2774519324303 57.055571466684341 4881.7552875429392 370.76530767977238 4080.5893620550632 146.48168471455574 2645.0992617756128 831.48228852450848 303.09134359657764 111.63504379987717 292.94043457508087 960.75849023461342 1057.6437818855047 2455.9887921959162 21716.446904197335 374.61064556241035 514.96532846987247 246.42657454311848 417.17747792601585 43.505944550037384 914.14684818685055 586.90445724129677 2658.1447969079018 82.863258525729179 3607.2879960536957 5075.9511901736259 66.976348981261253 2939.7761454433203 124.68372508883476 669.86754256486893 2338.7616579681635 7452.7983628362417 35.383657231926918 6673.673581391573 1226.1362470835447
leaf_count=944 4408 6465 125794 4449 1600 532 9305 1428 217 2163 2005 6080 1337 13835 1923 7394 1342 22495 316 6332 3839 11052 2898 4775 2777 11825 1974 594 6023 121 15559 1934 15641 497 12602 2814 947 551 1171 3560 4511 8360 67554 1676 2029 974 1590 215 2826 1811 8049 337 10742 15614 278 9754 674 2738 7546 26056 145 19308 5197
internal_value=0.0463638 0.0388154 0.0646185 0.0131686 0.043806 0.047179 0.0203536 0.0465513 0.114619 -0.0249288 0.0287148 0.051049 0.0401653 0.0408072 0.0216463 0.0265149 0.0137303 0.0505648 0.048426 0.04553 0.0349214 0.00937255 0.0352215 0.0358077 0.0074576 0.0048653 -0.00195509 0.0153557 -0.0049221 0.121359 0.0412491 -0.00254805 0.0195804 -0.0135215 -0.0193545 0.016487 0.046041 0.0334932 0.0444077 0.0443132 -0.0132343 0.0378606 0.0476922 0.0152122 0.0227765 0.0492954 0.0446636 0.0394785 0.0362141 0.029155 0.0463107 0.0547462 0.0501476 0.0466222 0.0485166 0.0487282 -0.0231337 0.0341049 0.032134 0.0287347 -0.0570101 0.0582272 0.0125651
internal_weight=162571 115013 47558.1 18734.7 96278.1 78690.2 15762 78053.8 3294 2972.65 17587.9 45798.1 32255.7 31937.5 11245.9 9361.99 12387.1 45482.6 37720.7 29117.3 18859.8 10298.8 2088.26 18573.2 9875.06 9081 6243.8 209.437 1830.87 3084.56 6341.97 1883.94 6747.08 3294.77 2791.58 6138.21 28902.3 3361 2614.91 5842.51 1428.41 16889.7 25541.3 1683.54 818.057 13077.7 3374.89 100.562 3249.37 2335.22 5197 2741.01 12831.2 9223.96 24723.2 24656.2 215.085 11692.7 10461.4 8122.67 1141.78 8603.37 5306.73
internal_count=519502 388153 131349 75107 313046 249737 60311 248793 5555 14796 63309 141487 107306 105878 42185 34140 49416 140955 118460 93072 64713 42069 7347 63376 40727 37950 26898 811 8186 4744 21124 8045 25575 15073 13099 23652 92082 11520 8565 19119 6445 56925 80562 6451 2976 41165 10895 336 10969 8143 16746 8386 40191 29449 77586 77308 990 40179 36340 28794 6610 25388 20838
is_linear=0
shrinkage=0.05


Tree=5
num_leaves=64
num_cat=0
split_feature=884 2377 878 271 1448 496 762 2353 679 71 681 47 226 563 622 235 680 1638 548 2355 1505 415 112 596 517 637 3 623 421 602 255 617 514 255 887 2351 637 496 1663 1967 2353 538 822 99 617 2037 308 406 2354 142 129 449 407 114 833 528 107 686 442 258 61 2178 1199
split_gain=6053.72 1637.79 1303.82 1278.61 1179.67 1162.81 1102.83 1072.36 737.574 684.741 649.77 611.359 422.428 420.02 397.978 436.773 374.061 369.241 349.182 340.197 332.607 422.612 470.019 325.384 255.078 254.534 254.407 241.619 234.764 230.673 312.681 228.418 222.822 260.925 221.178 218.535 205.887 202.958 200.33 178.438 179.527 175.846 175.393 174.862 162.053 152.525 203.582 205.13 149.892 141.792 140.426 173.5 134.671 134.067 129.865 127.644 127.593 124.661 120.252 144.453 129.359 137.759 119.688
threshold=-1.0000000180025095e-35 1832.5000000000002 -1.0000000180025095e-35 0.051229016855359084 1.0000000180025095e-35 0.00012066715498804116 2.7934381961822514 832.50000000000011 12.500000000000002 0.0044661485590040692 6.5000000000000009 0.014528201892971994 0.0034326176391914491 0.014633445069193842 1.0000000180025095e-35 1.0000000180025095e-35 11.500000000000002 1.0000000180025095e-35 0.0092537673190236109 730.00000000000011 -1.0000000180025095e-35 0.00058119240566156815 0.0039446200244128713 0.0025773734087124471 0.013119462411850693 -1.0000000180025095e-35 0.0047860913909971723 1.0000000180025095e-35 0.0064832030329853305 0.0034239458618685607 0.11951735988259317 272384.00000000006 23114.500000000004 0.14528023451566699 -1.0000000180025095e-35 70.500000000000014 -1.0000000180025095e-35 0.0017895103082992139 1.0000000180025095e-35 1.5000000000000002 79.500000000000014 0.0018507281783968212 274.00000000000006 0.0024388108868151907 12320.000000000002 -1.0000000180025095e-35 0.00051757600158452999 0.019456763751804832 216544.00000000003 0.00018989230738952759 0.0041201415006071338 0.00075466796988621365 0.019459381699562076 0.0032267440110445027 298948.50000000006 0.0022249412722885613 0.0041142166592180738 1340.0000000000002 0.0022331966320052747 0.0054906001314520845 0.0036435560323297982 -1.4999999999999998 -1.0000000180025095e-35
decision_type=2 2 2 2 2 2 2 2 2 2 2 2 2 2 2 2 2 2 2 2 2 2 2 2 2 2 2 2 2 2 2 2 2 2 2 2 2 2 2 2 2 2 2 2 2 2 2 2 2 2 2 2 2 2 2 2 2 2 2 2 2 2 2
left_child=6 2 -2 5 12 8 27 56 10 18 14 13 -5 20 42 19 -10 29 37 25 21 22 50 36 44 -16 39 -1 -20 30 53 -29 -15 55 -31 41 -8 -9 48 54 -41 -36 -4 -32 -21 46 47 57 -24 -47 -7 -52 -26 -17 58 -34 -3 -28 60 -60 -22 -62 -19
right_child=1 7 3 4 -6 11 23 9 16 -11 -12 -13 -14 32 15 17 -18 62 28 24 26 -23 38 -25 52 -27 45 31 -30 34 43 -33 33 -35 35 -37 -38 -39 -40 40 -42 -43 -44 -45 -46 49 -48 -49 -50 -51 51 -53 -54 -55 -56 -57 -58 -59 59 -61 61 -63 -64
